1086 32
0 -0.330747 -0.233708 0.045848 -0.222592 -0.131961 -0.911760 -0.242771 -0.492875 0.478100 0.086603 0.036674 -0.408954 0.011268 0.014114 -0.174498 0.050814 0.274361 -0.062300 -0.503951 0.116976 0.038783 0.317034 0.430031 0.402511 -0.485179 -0.310819 -0.122623 0.082771 0.537073 -0.253778 0.195095 -0.023914
106 0.511078 -0.575262 0.825065 0.501015 -0.719938 -0.556224 -0.545888 0.201237 -0.246248 -0.069965 0.464447 0.235691 0.114110 0.270331 -0.286894 0.574327 -0.232198 -0.193443 0.119616 -0.265928 -0.660297 0.195718 -0.253006 -0.067937 -0.147747 -0.035383 -0.056200 0.043881 0.247000 -0.263726 -0.383295 0.035561
218 -0.033058 -0.328520 -0.057069 -0.175123 -0.958183 -0.069714 -0.894865 0.145371 -0.506862 0.369936 -0.189591 -0.439635 -0.304509 0.717999 -0.429167 0.426359 -0.212460 -0.079020 0.234882 -0.136403 0.260292 0.508858 0.401527 -0.002791 -0.490484 0.461445 0.337997 0.000061 -0.278237 -0.247205 -0.477538 0.214498
37 0.019264 0.034540 -0.056908 0.077177 -0.835638 -0.268038 0.070606 -0.345949 0.371501 -0.066156 -0.547948 0.393566 -0.290704 -0.104658 -0.160400 0.696452 -0.008700 -0.356217 0.243543 -0.416553 0.143587 0.247124 0.273086 0.190354 -0.097811 -0.629923 0.140228 -0.604945 0.180724 -0.061169 -0.096278 0.039473
88 0.206681 0.064552 0.287118 -0.007864 -0.257532 -0.256790 0.279061 0.020798 0.079402 0.034463 -0.883580 0.500138 -0.378578 -0.197403 -0.146558 -0.524668 -0.136386 -0.769986 0.416077 -0.568137 0.406491 0.152619 -0.167634 -0.199755 -0.883500 0.084985 -0.047023 0.156284 0.041931 -0.785281 0.174545 0.098321
61 -0.511418 -0.421523 0.382240 -0.201971 -0.306216 -0.259709 0.820274 -0.470015 -0.074414 -0.174267 -0.205623 -0.407091 -0.280396 -0.002147 -0.167128 0.242668 -0.494102 0.614862 -0.307452 -0.087159 -0.249319 -0.058452 0.114855 -0.430281 -0.216157 -0.066120 -0.004955 0.233446 -0.034508 -0.496602 -0.175247 -0.379342
149 -0.256878 -0.177353 0.614267 0.112971 -0.153236 0.175662 -0.403617 -0.676082 0.365563 0.380505 -0.730739 -0.121860 -0.753507 0.010622 0.183186 0.406401 -0.187121 -0.172454 -0.403730 0.418413 -0.326151 0.122828 -0.533952 0.372879 -0.145503 -0.504237 0.098903 0.731087 0.173595 0.041947 0.300263 -0.282215
134 -0.035357 0.073673 0.004600 -0.104037 -1.115330 -0.338841 -0.360175 0.498124 0.004058 0.315604 -0.360378 0.277332 -0.715908 0.109157 0.456252 0.140085 0.157094 0.117636 -0.680897 -0.500090 0.542503 0.513411 0.062126 -0.796049 -0.208107 0.046551 -0.444017 -0.226627 0.124725 -0.188475 -0.359305 -0.374944
193 0.191221 0.272862 0.454525 0.102804 -0.417630 -0.546506 -0.085390 -0.288022 0.038282 -0.323386 -0.681843 -0.734234 0.473738 -0.274737 -0.316306 0.052895 0.224148 0.095584 0.086599 0.189446 0.049443 0.121800 -0.044471 -0.664958 0.366598 -0.410585 0.510016 0.549233 -0.216255 -0.648375 0.205967 -0.279744
212 0.211512 -0.362946 -0.170113 0.151388 -0.351472 -0.352163 -0.411985 -0.637923 0.125274 0.021337 -0.033582 -0.142081 -0.371411 0.244153 -0.109327 0.306482 -0.256890 0.336651 0.086926 0.125219 0.133488 0.026240 0.372545 -1.127303 -0.164721 0.360528 0.308536 0.343435 -0.610582 -0.608544 0.817213 -0.289322
199 -0.031206 -0.682887 0.221928 -0.089960 -0.249138 -0.456746 -0.188147 0.149553 0.016895 0.104008 -0.210532 -0.015885 -0.083368 0.235545 -0.156759 0.461728 0.160882 -0.403431 0.425526 -0.816252 -0.054100 0.928226 0.300998 -0.682713 -0.392717 -0.608043 -0.603389 0.407330 0.041266 0.034895 0.751634 0.347058
200 0.270552 -0.215764 0.130199 0.481185 -0.277886 -0.615377 0.369512 -0.495297 -0.079889 0.918371 -0.105438 -0.120649 -0.211593 -0.124974 0.799156 0.326799 -0.297632 0.498969 0.388127 0.178369 -0.124388 0.660351 -0.066855 -0.676491 -0.450536 -0.392635 -0.655023 -0.223418 -0.007655 -0.077695 -0.670064 -0.287771
195 0.243289 -0.196097 0.705736 0.192858 -0.507327 0.292158 -0.549624 0.230807 0.309625 -0.267867 -0.473135 -0.217850 0.282119 0.290210 -0.110150 0.127381 -0.948327 0.055076 0.043507 -0.463469 -0.034461 0.584035 -0.715727 0.229278 0.183082 -0.727327 -0.301570 0.079439 0.500377 -0.649080 -0.336865 0.224181
282 -0.463426 -1.501870 -0.086290 0.262986 -0.262209 -0.315818 -0.458481 0.179882 -0.657082 0.372351 0.216848 -1.061707 -0.213358 -0.047917 -0.679888 -0.568236 -0.292199 -0.051047 -0.056741 -0.658189 0.176814 -0.113684 -0.105940 -0.327486 -0.863322 0.039431 0.702178 0.065814 0.089187 -0.453414 -0.527954 -0.979033
8 -0.659011 0.279566 0.647707 -0.100344 -0.239965 -0.483847 -0.139972 0.049063 -0.133003 0.399171 -0.426639 -0.031623 -0.197710 0.355248 0.208266 0.451916 0.444869 -0.079686 -0.713182 -0.233407 -0.669406 0.565055 -0.232860 -0.019335 -0.155974 -0.058563 0.062279 -0.535855 -0.263134 -0.627630 -0.409941 -0.198988
151 -0.119004 0.221591 0.250481 -0.221716 0.094467 0.267499 -0.484367 -0.594059 -0.283886 0.906630 0.047605 -0.025915 -0.593406 0.036027 -0.269504 0.272042 -0.489469 0.704958 0.008066 -0.547775 0.580283 0.439836 -0.445504 -0.096292 0.134308 -0.645066 0.043844 0.180097 0.961201 -0.679540 -0.005919 -0.372612
5 -0.059334 0.368438 0.541403 -0.057212 -0.346199 -0.541228 -0.241536 -0.538442 0.311292 0.046099 -0.187180 -1.040361 -0.115265 -0.046629 0.378910 0.057945 -0.099449 -0.277236 -0.694907 0.362333 0.183094 0.391598 -1.029494 -0.092823 -0.244502 -0.186253 -0.026717 -0.392317 -0.364492 -0.232692 0.221499 -0.243725
70 0.432115 -0.131027 0.191409 -0.274222 0.255221 0.027993 0.278723 -0.320219 0.099596 0.040987 0.214022 -0.082706 -0.084301 0.418121 -0.317363 0.754251 0.002360 0.088073 -0.239491 0.140896 1.094783 0.273101 -0.409349 0.174212 -0.358918 -0.110681 -0.400183 0.302504 0.256310 -1.047422 0.165233 -0.774541
1 -0.449031 -0.805950 0.857569 -0.231456 -0.210134 -0.400214 0.614094 0.112004 0.646702 0.500502 0.362303 -0.156593 0.310241 0.253792 -0.263562 0.740935 0.211467 0.118560 0.012622 -0.146056 1.052028 0.236776 0.313153 0.166561 -0.033718 0.316567 -0.192745 0.303503 0.646530 -1.277352 0.083484 0.120062
114 0.722349 0.289989 0.541388 0.737459 -0.903787 -0.456800 0.007679 -0.846662 0.062216 0.209907 -0.109597 -0.955849 0.692838 0.311823 0.678321 0.013508 -0.252201 0.395933 -0.332725 -0.265546 -0.273800 0.543539 0.200664 0.152267 -0.109646 0.162257 0.121647 0.046169 0.068457 0.385352 0.243181 -0.344494
103 -0.371498 -1.024919 0.952067 -0.356278 -0.823802 0.266978 -0.328490 -0.673793 0.539671 0.049830 0.318501 -0.168168 0.290075 -0.322167 -0.871630 0.304492 -0.235786 0.146029 0.417655 -0.790984 0.061337 0.500174 -0.260684 0.220657 -0.545962 -0.241636 -0.084709 0.151424 -0.072166 0.395821 -0.014597 -0.187390
376 -0.383859 -0.262273 0.232124 0.864924 -0.227726 -0.230557 0.091769 -0.063632 0.614329 -0.108131 -0.581119 0.040085 0.072662 0.750486 -0.294136 0.337329 0.121052 0.352366 -0.542981 0.130617 0.196028 -0.208579 0.493623 -0.682762 -0.109093 -0.293498 -0.702248 0.538594 -0.149381 0.018329 -0.390615 -0.998225
232 0.218953 -0.071458 0.512987 0.513879 -0.694828 -0.647220 -0.275766 -0.122193 -0.325745 -0.556197 0.556795 0.221127 0.021036 1.167988 -0.188387 -0.074907 0.238467 0.641791 0.199429 0.042890 0.263251 -0.038648 -0.310543 -0.228307 -0.020615 -0.572134 0.337129 0.022941 -0.001021 -1.275876 0.294095 0.086632
112 -0.050761 0.554470 0.603386 -0.203812 0.117178 0.174110 -0.758797 -0.766547 0.262421 0.105167 -0.212772 -0.737150 0.178854 0.029570 -0.160111 -0.190784 0.194981 -0.125799 0.214539 0.117263 0.393554 0.544130 0.125945 -0.903416 -0.663552 0.232247 -0.089392 -0.196380 -0.504204 -0.660147 -0.128716 -0.799343
12 -0.352215 -0.366840 0.219211 -0.019521 -0.147023 -0.325342 -0.891502 -0.751012 0.234354 0.736811 -0.646344 0.123275 -0.655421 0.215650 -0.436701 0.150244 0.275017 0.391341 0.112213 0.040709 0.264055 0.369594 -0.004794 0.553973 0.296621 0.027587 -0.073161 0.844099 0.607641 -0.254342 -0.186998 0.528841
255 -0.040340 -0.747405 0.596017 0.381791 -0.283601 -0.023867 -0.563394 -0.608155 0.046249 -0.060699 -0.543275 0.500476 -0.549818 0.551394 -0.270654 -0.181250 -0.058022 -0.049352 0.595069 0.086858 -0.074779 -0.285283 0.007768 -0.449097 0.080855 -0.585042 -0.615050 0.542835 -0.192309 0.177022 0.929881 -0.837109
117 0.340524 -0.122352 0.234034 0.080566 -0.080742 -0.547090 -0.581482 -0.584835 -0.181226 0.438224 -0.656623 -0.689407 -0.767100 0.126598 0.746448 -0.146902 0.046081 0.400836 -0.506147 -0.587424 0.094688 -0.428829 -0.452525 -0.112727 0.343800 -0.032638 -0.526696 0.688828 -0.885047 -0.828192 0.467243 0.519509
126 -0.231330 0.026819 -0.120106 0.694423 -0.360818 -0.458811 0.227532 -0.325992 0.124002 0.193817 -0.598443 -0.471727 -0.165541 -0.333470 0.829518 -0.216184 0.520439 0.049909 0.594957 -0.343387 0.091667 0.238004 -0.104913 -0.498796 -0.180532 -0.990106 -0.340203 -0.465191 -0.093939 -0.577248 0.078477 0.092252
414 0.056574 -0.512885 -0.152846 0.382124 -0.773764 0.468309 -0.281275 -0.226642 -0.043079 0.213010 0.127353 -0.355969 -0.054313 -0.586146 -0.814690 -0.352032 0.643180 0.461051 -0.254125 -0.187661 0.126684 0.167798 -0.116335 -0.651515 -0.342898 0.054884 0.065419 0.104361 0.148178 -1.174828 -0.632893 -0.225903
165 0.319681 -0.190820 0.837398 0.732294 -0.605510 -0.436267 -0.477351 0.365249 0.458953 -0.263944 -0.230222 0.037364 0.353709 -0.316455 -0.934677 0.647298 0.645846 -0.121523 -0.818319 -0.498541 0.241192 0.042280 -0.337812 -0.667485 -0.120426 -0.574286 -0.278548 0.583338 0.302248 0.328932 0.063532 -0.251269
184 0.426809 0.693652 0.354383 -0.162366 -0.444277 -0.274358 -0.878313 -0.361416 0.029286 -0.107502 0.300068 -0.121914 -0.151442 0.012682 -0.254178 -0.647372 0.463323 0.240241 -0.178016 -0.065345 0.707254 0.408700 -0.261214 -0.497777 -0.241718 -0.207594 -0.261302 -0.018558 0.344374 -1.095194 -0.373388 -0.548436
120 0.524272 0.069584 0.863483 -0.370469 -0.796316 -0.698259 0.281328 -0.087486 0.125722 0.722200 0.060694 -0.472591 -0.210637 -0.540532 -0.278247 0.368174 -0.122961 0.113507 -0.400096 0.101960 0.094565 -0.708174 -0.368157 0.195463 -0.245155 -0.528071 0.101658 -0.698393 -0.383759 -0.471783 0.597684 -0.042434
2 -0.020361 0.003247 0.408383 0.418880 -0.418645 -0.638984 -0.235465 -0.112313 -0.071277 0.517727 -0.141736 0.232881 0.900692 -0.540943 -0.086357 -0.450546 0.042008 -0.114579 -0.362902 -0.402090 0.195186 -0.101580 0.197995 0.532405 -1.252228 -0.204107 -0.299606 0.223146 -0.158287 -0.512575 0.028702 0.112152
306 0.286126 0.171553 0.319235 0.017211 -0.233860 -0.440566 -0.567732 0.103405 1.080284 0.247282 -0.676242 0.261133 -0.128366 0.503496 -0.403470 0.092348 0.130564 -0.542446 0.409884 -0.450285 0.320637 -0.841094 0.456065 -0.563465 -1.029133 0.298369 0.128739 0.692091 -0.240689 -0.636613 0.439626 0.157220
62 0.643812 -0.455769 -0.193914 -0.020037 -0.158872 -0.058210 0.075041 -0.667426 0.393121 -0.476733 -0.500857 -0.154633 -0.563125 0.277854 -0.317286 0.277549 0.047720 0.236918 -0.451677 -0.013210 0.579324 0.611359 0.169478 0.542891 -0.366463 0.288122 0.415278 -0.677140 -0.036230 -0.495768 -0.224062 -0.881793
661 -0.013169 -0.804958 0.841250 0.443294 -0.568294 -0.791348 0.474608 -1.093457 -0.865134 0.140162 -1.338126 -0.070857 0.536785 -0.123977 0.336655 0.313744 0.513131 0.536650 -0.227641 -0.579148 0.364552 -0.626558 0.516865 0.385057 0.112419 0.670467 -0.593765 -0.340685 0.008993 -0.108054 0.614425 0.347392
47 -0.571137 -0.341502 0.081222 0.604975 -0.621080 -0.631055 0.065074 -0.448600 0.716785 0.366108 -0.900194 -0.449377 0.540429 0.052873 0.085252 0.051809 0.878619 0.331942 -0.040623 0.227571 0.619782 -0.436377 0.669153 0.088458 -0.263839 0.102181 0.190897 0.228422 0.080328 0.008130 0.225409 -0.599774
313 -0.282456 0.036869 -0.079173 0.976122 -0.231532 -0.720013 -0.030622 -0.295372 0.345323 0.092936 0.373489 -0.223397 0.110283 0.730982 -0.098282 0.511757 0.000392 0.290605 0.080861 -0.789135 0.734714 0.270256 -0.231155 -0.143093 0.454596 0.109256 0.224792 -0.195162 -0.172163 -0.829351 0.720331 0.068584
309 0.487211 0.161857 0.263617 0.458496 -0.355090 0.341391 -0.323607 -0.315956 -0.142223 0.209379 -0.481795 0.081848 -0.430426 0.020801 -0.191464 0.259730 -0.315174 0.681258 -0.415889 -1.089390 0.315631 0.124616 0.194259 0.454615 0.808948 -0.291253 -0.752367 -0.240494 0.470264 -0.982225 0.732738 -0.208386
377 -0.289486 -0.515036 0.550439 1.195337 -0.122690 -0.285972 0.010687 -0.163018 0.870829 0.609298 -0.544979 -0.166333 0.341914 0.582523 -0.041334 -0.206916 -0.284134 0.216916 -0.451136 -0.431308 0.231668 -0.501259 0.037380 0.060702 0.039933 0.083352 0.391090 -0.455619 -0.321003 0.047284 0.114882 -0.565374
150 0.326733 -0.657500 0.377127 -0.355026 -0.649382 0.120283 -0.639253 -0.851774 -0.116035 0.180419 -0.408538 -0.288780 -0.228741 0.602986 -0.430570 0.083189 0.480687 0.144282 0.030334 0.183767 0.753139 -0.081535 0.284235 0.242160 0.631924 -0.012421 0.783778 -0.307944 0.388261 -0.241723 -0.420197 -0.192199
89 -0.492979 -0.466977 0.535080 1.057280 0.133100 0.352191 -0.683073 -0.609762 -0.211829 0.118181 -0.128478 -0.202157 0.478223 0.288123 -0.562572 0.001705 -0.461048 0.077863 -0.584089 -0.612035 0.077715 -0.492326 0.529089 0.348617 -0.586246 -0.847265 -0.240363 -0.207581 -0.243145 -0.078919 -0.665631 -0.405171
153 0.086305 -0.763335 -0.496808 -0.007866 -0.477245 -0.225684 -0.490746 -1.069436 0.098780 0.344598 -0.420298 -0.367926 -0.342888 -0.713423 -0.762030 0.319048 -0.065156 0.562346 -0.152869 0.351384 0.082838 0.107153 -0.171196 -0.547901 0.352265 0.343903 -0.084829 0.237809 0.432804 -0.361279 0.153910 -0.120834
127 -0.483358 0.232363 0.582974 0.008405 -0.056731 0.197648 -0.125569 -0.704640 0.473020 0.567472 -0.393483 -0.769338 -0.439079 -0.335842 0.807201 0.239892 0.590357 -0.246154 0.562052 -0.216727 -0.382943 0.714400 -0.398033 -0.663077 -0.316652 -0.235453 -0.027863 0.065466 -0.305429 -0.595505 -0.379163 -0.501007
128 0.265586 0.541091 0.510580 0.466396 -0.344236 -0.323322 -0.155365 -0.404010 -0.690008 0.630581 -0.113798 0.260110 0.085059 0.099282 0.015981 0.642424 0.077575 -0.263936 0.116246 -0.648085 -0.185726 -0.380065 -0.227376 -0.387246 -0.635046 -0.033095 -0.102312 -0.151999 0.088255 -0.251137 -1.509143 -0.326569
386 0.271938 -0.452610 0.939569 0.740526 0.224763 -0.316210 0.179860 -0.337168 -0.093215 -0.127137 -0.671978 -0.103578 -0.893631 -0.019540 0.353654 -0.233303 0.243101 0.545298 0.227017 -0.653728 -0.029061 -0.249145 0.164142 -0.376177 0.244282 -0.254368 -0.185608 -0.187919 -0.131178 -0.528766 0.822353 -0.027609
284 0.001847 -0.436357 0.227070 0.298140 -0.231622 -0.623013 -0.417946 0.427250 0.136740 0.414482 -0.937358 0.091229 -0.466514 0.011361 -0.173507 0.409025 -0.532760 -0.777542 0.249590 0.373300 -0.292821 0.097937 0.490691 0.019454 -0.579954 -0.340210 0.581248 -0.793646 -0.548310 -1.016393 -0.196902 0.215201
63 -0.571580 -0.607791 0.006509 0.555655 -0.361486 -0.701700 -0.327798 0.131853 0.613850 0.067957 -0.028792 -0.546228 -0.161762 0.902126 -0.064211 -0.110484 -0.340143 -0.272050 -0.054932 0.090492 0.336200 0.032827 -0.791603 0.210147 -0.032761 -0.142872 0.589021 0.185931 0.058005 -0.315082 0.494298 -0.293442
100 0.127656 0.160373 0.682088 0.178700 0.178468 -1.009280 -0.309601 -0.276844 0.287988 -0.218571 -0.924027 -0.308621 0.111036 -0.694216 -0.252439 0.575749 -0.725376 0.209941 -0.433623 0.236239 -0.217930 0.108432 0.345805 -0.174093 -0.797169 -0.336716 0.337834 0.209922 -0.528798 -0.661586 0.060842 0.661263
502 0.087046 -1.002820 0.333221 -0.233386 0.628288 -0.073685 0.009646 -0.618934 -0.016942 -0.087023 -0.791330 -0.144768 -0.492102 0.005697 0.186632 0.515694 0.177007 0.200157 -0.375749 -0.251759 -0.046830 -0.061305 -0.965138 0.396655 -0.275191 0.089811 -0.500191 0.523907 -0.106223 -0.653699 -0.295143 -0.430189
146 0.462268 -0.498661 -0.232739 -0.284222 -0.300187 -0.738738 -0.305682 -0.859648 0.682798 0.993134 -0.245033 -0.303264 -0.000296 0.378288 0.757627 -0.030957 -0.397108 -0.026118 -0.406003 -0.553133 0.132267 -0.802592 -0.248319 0.044870 0.319558 -0.620246 0.658565 0.259204 -0.416298 -0.257728 0.201577 -0.178360
140 -0.538526 -0.046667 0.333271 -0.418848 0.038974 -0.812971 0.249360 -0.004417 0.553778 0.569471 -1.004507 0.469466 -0.239800 0.151946 -0.088485 0.553641 0.268773 0.061027 -0.048590 -0.267235 -0.314101 0.641398 -0.268627 0.517250 -0.072753 0.325335 -0.084766 0.806667 -0.071163 -0.912331 -0.426999 -0.678609
412 -0.267994 -0.838928 0.312831 -0.798929 -0.769741 0.248852 -0.711261 -0.582927 0.490191 0.351914 -0.743426 -0.344709 0.360603 0.261473 -0.554145 0.075684 0.912551 0.602419 0.115222 0.463637 0.012580 -0.139328 -0.128215 0.090342 -0.004822 -0.968326 -0.017220 -0.559195 -0.454590 -0.542873 -0.336385 0.207306
142 0.375031 0.422851 1.148615 0.029577 -0.754072 -0.081360 -0.483709 -0.092659 -0.133882 0.302648 -0.359766 -0.129749 0.430593 1.085152 0.114254 0.047673 -0.264680 0.500611 -0.059797 -0.290524 -0.261971 0.266960 -0.452708 -0.030412 0.348387 -0.216757 -0.150104 0.375552 -0.334986 -0.069850 -0.014876 -0.035534
182 -0.483906 -0.387762 -0.020882 -0.181454 -0.044057 -0.303327 -0.204402 -0.244430 -0.174864 1.181451 -0.303057 0.125349 0.426749 0.323299 0.403538 0.307555 -0.332461 0.914521 0.234397 0.236003 0.337633 0.090468 -0.435622 0.665896 -0.755513 0.124733 -0.125809 -0.324007 0.332619 -1.166018 0.745357 -0.674230
16 0.421364 0.807387 -0.146669 0.113500 0.040787 -0.427119 -0.053509 -0.816097 0.653108 0.280908 0.423342 -0.697643 0.232714 1.225788 -0.836458 0.132270 -0.423802 -0.193702 -0.733995 -0.651799 -0.150503 -0.110585 0.526270 -0.350987 -0.447763 -0.440849 0.232146 0.223593 0.890562 -0.681486 -0.000345 -0.432253
96 0.948324 0.452242 0.232551 0.810097 -0.528684 -0.253438 0.136288 -0.084622 0.435226 0.422069 -0.056255 -0.614096 0.810518 0.488764 -0.431631 0.287860 -0.711779 -0.119302 -0.719945 -0.494345 0.520214 0.421391 0.165129 0.274616 -1.254391 0.375582 0.357123 0.853461 -0.481284 -0.411952 -0.019166 0.231306
191 0.103649 -0.982863 0.119778 0.259555 0.266536 0.146803 0.053407 -0.283620 0.156578 -0.182432 -0.383790 -0.692819 -0.008643 -0.127733 -0.538300 0.150453 0.111038 0.696813 -0.710603 -0.539597 -0.107933 -0.163066 0.196816 0.359253 -0.072512 0.084096 -0.390134 -0.465794 -0.021074 -1.057839 -0.423474 -0.787630
130 0.204948 -0.031113 0.772832 -0.062980 -0.034644 -0.250697 -0.241561 0.014342 0.533136 0.730385 -0.675645 -0.036646 -0.344665 -0.080105 -0.406028 0.435569 0.483546 -0.211851 -0.284761 0.265038 -0.543488 0.273262 0.024882 0.200846 -0.212271 -1.099501 0.313541 -0.853573 -0.496665 -0.385746 -0.057258 -0.321169
347 0.414939 0.210956 0.310429 0.118057 -0.165436 -0.025081 0.185844 -0.446814 0.142935 -0.229581 -1.062324 -0.948817 -0.274317 -0.566499 0.374100 -0.368822 -0.254032 0.023307 0.648787 -0.062623 0.235077 0.818233 -0.203557 -0.985516 -0.532047 -0.295847 -0.030731 -0.167052 -0.214158 -0.557503 -0.070043 -0.130119
94 -0.089367 -0.358714 0.291127 0.804139 -0.846957 -0.466137 -0.020221 -0.712894 -0.058018 0.601225 0.155127 0.272364 0.049427 -0.127794 0.013380 -0.329009 -0.135040 -0.111197 0.437762 -0.855217 0.979645 0.339826 0.507137 0.949538 0.600338 0.204308 -0.886219 0.032477 -0.322854 -1.035764 0.091654 0.233848
44 0.436156 -0.987114 0.019936 -0.130911 -0.267386 -1.395458 -0.348596 -1.369590 0.284878 -0.573544 -0.026424 -0.148336 -0.423194 0.330762 -0.389570 0.359805 0.777167 -0.251984 -1.050774 -0.087020 0.315431 -0.216121 0.133650 0.004804 0.297851 0.266572 0.827950 -0.773119 -0.030372 -0.365250 -0.948227 -0.348886
104 0.130694 0.087951 0.261157 0.243431 -0.010991 -0.599251 -0.028613 0.031192 0.007006 0.099970 -0.048269 -0.278178 -0.061640 -0.451371 -0.517940 1.059276 0.688226 -0.043126 0.011940 -1.018149 0.423570 0.640409 -0.482776 0.022637 0.220112 -0.360153 -0.161340 0.643540 0.048988 -0.504952 0.455040 -0.285662
444 0.900197 -0.777831 0.342205 0.704565 -0.251766 0.513240 0.142111 -0.060720 0.264851 1.128720 -0.703874 0.468079 -0.324443 -0.153425 -0.539001 -0.709367 0.007726 0.002749 0.595692 -1.449463 0.339478 0.359365 -0.127480 0.188104 -0.686271 0.007266 -0.088344 0.164600 -0.003165 -0.842262 -0.301323 0.651200
457 0.342671 -1.018995 0.477682 -0.009665 0.109767 0.088409 0.760620 -0.899620 -0.548522 0.269841 -0.447165 0.046072 -0.094965 0.298641 0.142439 -0.372714 -0.711781 -1.227048 -0.609067 0.090801 0.424550 0.577645 -0.317742 -0.497571 -0.545171 -0.728736 -0.224147 0.162988 -0.252765 -0.593748 -0.461263 0.414506
305 0.060054 -0.176363 0.106359 1.072414 -1.209629 -0.198748 0.578660 0.010549 0.113930 0.721929 -0.761252 -0.441215 -0.619888 1.081294 -1.118413 0.691519 0.543268 -0.861047 0.483152 0.504694 -0.218418 -0.539337 -0.555087 -0.197468 -0.311388 0.767755 -1.085427 -0.191157 0.419339 -0.222756 -0.218769 -0.300252
243 1.092701 -0.402213 0.493131 0.099593 -0.148415 -0.966496 -0.360040 -0.477914 0.183648 -0.615338 -0.493551 0.005227 0.634953 0.468977 0.497835 0.541113 0.418391 -0.219032 0.319685 0.128353 0.273253 -0.419144 -0.060792 -0.550574 0.073210 0.004635 0.324502 -0.175487 0.543513 -0.532268 -0.616981 0.023885
475 -0.119235 0.439329 -0.466141 0.739939 -0.695410 -0.302629 -0.252976 -0.035115 0.449621 -0.253658 -0.814706 -0.090138 -0.313207 0.439288 -0.166808 0.460359 -0.920431 -0.565479 -0.528087 -0.699562 1.651761 0.073684 -0.517528 -0.499701 -0.355521 0.370733 -0.107398 -0.296653 -0.432771 -0.484316 0.515978 0.143023
40 -0.284872 -0.241609 -0.244459 0.398955 0.172873 -0.798696 -0.535914 -0.421020 -0.094074 0.314159 -0.601010 -0.285384 0.237734 -0.067717 -0.446101 1.218125 -0.136445 0.545867 0.182967 0.335861 0.021478 0.640902 0.336790 -0.642735 -0.704493 -0.252407 -0.163092 -0.019403 -0.254124 -0.188516 -0.508592 0.559939
395 -0.115675 -0.632386 1.094421 0.604957 -0.755121 0.017367 0.482302 -0.839990 -0.125947 -0.309614 -0.930626 -0.258292 0.569478 0.290231 0.726166 0.425037 -0.544456 0.122919 -0.090755 -0.508333 -0.175538 -0.175157 0.092430 -0.236262 0.055016 0.311433 0.220423 0.015758 0.007100 0.349063 0.448152 -0.191424
222 0.041498 -0.055303 -0.019101 0.764372 -0.346893 -0.040427 -0.488505 -0.162512 -0.280702 0.270440 0.566038 -0.123071 0.458252 0.652477 -0.356450 0.564724 0.076089 -0.328541 -0.021853 -1.270198 -0.521777 0.390928 0.211592 -0.136168 0.044426 -0.687076 -0.591961 -0.180288 0.337227 -0.880807 0.877793 0.002818
13 -0.359188 0.278445 0.518692 0.384247 -0.674660 -0.928283 -0.530060 -0.548486 -0.198443 -0.078000 0.116941 0.070182 0.347899 -0.459911 -0.213142 0.055082 0.305610 -0.602513 -0.282567 -0.276026 0.540802 0.506670 -0.604246 0.106503 -0.628065 -0.301467 -0.236123 0.008239 1.066687 0.145242 0.113079 0.396246
176 0.168607 0.232529 0.218312 0.345597 -0.472481 -0.478530 -0.096445 -0.680685 0.279830 0.617769 -0.145214 -0.050449 0.535691 0.890557 -1.199566 -0.555668 -0.798505 -0.348753 -0.055650 -0.029250 -0.781359 0.369807 -0.470494 -1.031691 0.174423 -0.188764 0.175840 -0.506371 0.500201 -0.296166 0.162530 -1.053084
207 0.190520 -0.686119 0.134832 0.134627 -0.422065 0.365231 -0.610384 -0.279894 0.847830 -0.096911 -1.073684 -0.557055 0.416084 -0.040543 0.093456 0.401240 0.586142 -0.148900 -0.912180 -0.616821 -0.095910 -0.386001 -0.421916 -0.072722 0.125990 -0.501339 -0.438903 0.123045 1.187902 -0.051073 -0.161729 0.032905
266 0.388849 -0.096695 1.685648 0.651362 -0.224496 0.148635 -0.357752 0.208441 0.020995 -0.077973 -0.978696 -0.211002 -0.791247 0.139533 1.016622 -0.246238 0.001509 0.638111 -0.195679 -0.195744 -0.036994 0.247460 0.075782 -0.074787 -0.677759 0.394291 0.307313 -0.438295 0.350215 -0.269397 0.206045 -0.126935
99 0.291423 -0.087575 -0.129261 0.388827 -0.314401 -0.030643 -0.389241 -0.432322 -0.173998 0.502277 -0.205127 0.085861 0.013400 -0.290771 -0.072324 -0.124500 0.684087 -0.115925 -0.012733 -0.829492 0.304523 -0.382542 -0.261396 -0.316385 -1.212896 0.409513 0.052813 0.350400 -0.225769 -0.657962 -0.572725 0.499471
329 0.130157 0.356078 1.023986 0.523633 -0.797706 0.094233 -0.294246 -0.263427 0.009826 -0.282952 -0.898945 -0.282677 0.573822 0.114276 0.303037 0.358884 -0.031497 -0.003310 -0.151747 -0.199632 0.034847 -0.010332 -0.666022 -0.093485 0.229638 -0.312360 0.057011 0.714691 -0.127904 -0.013801 0.207105 0.142557
614 -0.113657 -1.029804 0.640394 0.584948 -0.404189 -0.273100 0.285013 -1.085546 -0.497017 0.715163 -0.026169 0.047948 -0.423917 0.350420 0.572794 -0.208524 -0.264499 -1.583202 -1.153681 -0.099451 0.599018 -0.211581 0.943562 0.090820 0.661885 -1.116248 -0.506708 1.122357 -0.129957 -0.931129 -0.494869 -0.057077
404 -1.146042 0.853668 1.080141 0.481638 0.159371 -0.062322 -1.035012 -1.777327 -0.683074 -0.463460 -0.675250 -0.474264 0.678918 -0.047306 -0.630754 0.154479 -0.067382 -0.017366 0.568823 -0.166229 -0.123559 -0.194746 0.592014 -0.063282 -0.645969 -0.427798 -0.683664 0.119180 -0.460219 -0.535667 -0.500430 -1.448305
600 0.448225 -0.354250 1.226433 0.914675 -0.901158 0.142083 -0.389871 -1.125879 0.590743 -0.643813 -1.113861 0.078415 0.492843 0.815790 1.436978 0.169046 0.295001 0.445112 0.764261 0.126635 -0.504494 -0.003249 0.017116 -0.260249 -0.633762 0.872449 0.601650 -0.479297 1.113693 -0.480556 -0.293757 -0.111651
283 0.172411 0.112590 0.793816 -0.470137 -0.459614 0.032978 -0.841130 -0.565919 -0.126764 0.554836 -0.436799 -0.916282 0.202327 0.780744 -0.244246 -0.048106 -0.551269 0.071006 0.528334 0.191396 0.482268 0.174072 0.016006 -0.392668 0.245972 0.202132 0.370155 0.555879 -0.240544 0.028582 -0.604590 -0.323206
501 -0.141292 -0.338346 0.249258 0.069536 -0.128913 0.533859 0.254189 -0.308002 0.261029 0.430090 -0.167121 0.110302 -0.380143 0.603180 0.770959 0.644284 0.391199 -0.999368 0.071428 -0.123625 0.470843 0.743642 -0.555543 0.309067 -0.384123 -0.745697 0.085001 0.636122 -0.009162 -0.645399 0.242652 -1.022596
308 0.250830 0.037294 0.603820 0.387399 -0.427180 -0.776438 -0.340213 -0.338901 0.507877 0.859652 -0.224398 0.357749 0.259819 1.107960 -0.836617 -1.001872 0.160032 -0.284676 0.483002 0.051087 -0.735275 -0.454033 -0.540118 -0.879664 0.212321 -0.234260 -0.735992 0.262749 -0.108867 -0.558653 0.450554 -1.049002
226 1.038177 -0.818779 0.645233 -0.093209 -0.863952 -0.125592 -0.104952 -0.594728 -0.162405 -0.266748 0.316068 -0.391926 0.487038 0.512030 -0.087388 -0.127905 0.022220 0.108735 -0.095608 0.421654 0.125640 -0.381871 -0.567970 0.103405 0.093431 -0.668599 0.464758 -0.314203 -0.040297 -0.944195 0.180555 0.436292
342 0.244442 -0.443343 0.088466 0.187678 -0.692764 -0.224264 0.046972 -0.244819 0.188695 -0.149355 -0.316167 -0.111693 0.546306 0.422136 -0.309966 -0.110631 1.014298 0.465341 0.474021 0.136678 -0.127150 -0.344013 0.129351 -0.940745 0.310975 -0.988002 -0.072138 0.088722 -0.470716 -1.187731 -0.257564 0.020402
440 0.257412 -0.070332 0.375457 0.525065 -0.727969 0.200163 -0.229656 -0.151558 0.358895 0.567463 -0.973700 -0.126790 0.150201 0.592011 -0.579917 0.547255 0.246169 -0.986513 0.017656 0.024520 0.184330 -0.386680 1.132538 -0.135786 -0.126890 -0.315457 -0.886748 0.076127 0.128239 -0.025436 -0.084128 0.358506
391 1.836045 -0.226236 0.206620 0.605466 -0.917285 0.001302 -0.217935 -1.317127 -0.253109 0.295852 -0.310130 -1.269083 0.435136 -0.139788 0.259604 0.340008 -0.044881 -0.842903 0.005408 -0.267504 -1.053264 -0.404023 0.333804 0.621199 -0.403402 0.023511 -0.246924 -0.585586 0.857527 -0.537401 1.374608 -0.702514
24 -0.728499 -0.524940 0.676877 0.290374 -0.138271 0.018901 -0.327453 -0.310338 0.183970 -0.029474 0.230235 -0.086102 0.214258 0.012558 -0.891018 0.670741 -0.478384 0.064890 -0.100080 -0.426972 0.377826 0.094416 0.217249 0.499423 0.090474 -0.707106 -0.009490 -0.159861 0.367757 -0.407186 -0.012852 0.131313
38 -0.501235 -0.410563 0.242515 0.892337 0.201134 -0.088660 -0.213408 -0.636488 -0.270251 0.384577 -0.029446 -0.328702 0.189523 0.847437 -0.454188 0.300705 0.022821 -0.876638 -0.912579 0.106892 0.160279 -0.376969 0.984725 0.061619 -0.275906 -0.703652 -0.887781 0.245753 -0.075802 -0.274063 -0.226303 -0.436475
279 0.732417 0.221565 0.801750 -0.174967 -1.437777 -0.259513 -1.381682 -0.566987 -1.134782 1.052899 -0.177200 -1.081857 -0.755257 0.325708 -0.733059 0.955075 -0.450630 -1.272631 -0.232684 -0.500313 0.110572 -0.486628 1.385207 -0.371251 -0.617444 1.200173 -1.190774 0.202030 -0.927031 -0.545554 0.049164 0.639875
52 0.404625 -0.675590 0.307013 -0.165904 0.027229 -0.937618 -0.131032 -1.178773 0.045748 -0.234078 -0.857447 -0.168609 0.337508 -0.101502 -0.324420 0.429440 0.659576 0.120584 -0.157851 0.256217 0.503016 -0.413552 0.902808 -0.176922 0.010231 0.300527 -0.186384 0.232433 0.743668 -0.140957 0.052882 0.285202
132 -1.232772 0.045619 0.718307 0.958516 -0.746434 -0.054993 0.149606 -0.797797 -0.454559 0.117989 -1.352994 0.080784 -0.589107 1.412317 0.172589 -0.019776 0.803592 -0.469764 -1.434397 0.394911 -1.031268 0.816797 0.199861 0.303747 -0.807939 -0.005748 -0.027604 -0.854437 0.320380 -0.746813 -0.276818 0.954736
170 -0.003999 -0.281234 0.463607 0.876100 -0.252700 0.139323 -1.114743 -0.634957 0.151436 0.614513 -1.215585 0.128967 -0.579899 0.127712 0.883752 0.239329 -0.370329 -0.502252 -0.323040 0.497665 -0.723323 0.202760 -0.064498 0.444424 -0.731956 0.294494 0.683157 -0.046156 0.549232 -0.324798 0.737574 0.169593
25 0.308989 -0.377004 -0.060652 0.509266 -0.358701 -0.270980 -0.054049 -0.439929 0.442260 0.749843 -0.120993 -0.746188 -0.274221 0.293525 0.334137 -0.147639 0.341592 0.496253 0.243091 0.422105 0.113360 1.266486 0.299677 -0.064783 -0.327151 -1.036176 -0.796832 0.210762 0.722357 -0.083060 -0.122712 0.249812
188 0.953376 -0.771101 -0.266962 0.224940 -1.030917 0.097685 -0.453449 -0.283107 0.212790 0.229340 0.030367 -0.957756 -0.392560 0.888602 0.148602 0.012365 0.819295 0.128921 -0.242147 0.091430 0.368297 1.475457 0.535118 0.659570 -0.953127 1.025942 0.176684 -0.368011 -0.718926 -0.800755 0.003170 -0.691493
341 -0.643803 0.470330 1.151575 -0.222028 -0.614797 -0.215903 -0.444402 -0.542224 -0.387915 -0.087497 -0.838441 -1.117032 -0.084940 -0.337477 -0.433482 -0.095184 -0.202704 -0.177696 0.704957 0.179334 0.004459 -0.626726 0.135340 0.158478 -0.247172 -0.101611 0.153536 0.680678 0.074343 -0.347728 -0.945837 -0.974788
327 0.238624 -0.392524 0.487039 1.449390 -1.066830 -0.808675 0.743315 -0.588025 0.475283 1.079606 0.422051 0.382302 -0.548498 -0.402865 0.223491 0.424187 -0.298110 -0.341782 0.690711 0.422187 -0.082365 0.410985 0.296528 -0.112636 0.115317 0.287124 -0.682505 -0.022737 -0.150645 -0.921610 -0.160775 0.082762
339 0.429096 0.370271 1.139120 0.740846 -0.215411 -0.479962 0.225621 -0.212186 0.174297 0.195216 -0.455704 -0.378615 -0.483898 -0.037233 -0.599546 0.182890 0.806068 -0.258391 0.326005 -0.023061 0.313341 0.036691 0.411940 -0.596237 0.670203 -0.212247 0.849987 -0.031070 0.183252 -0.706124 1.206931 -0.311383
116 -0.960903 -0.342139 0.283011 0.575360 -0.399858 -0.074788 -0.249053 -0.438570 0.210554 0.235181 -0.325067 -0.337453 -0.515104 0.431475 0.530677 0.058386 -0.098434 -0.834754 0.208874 0.264468 1.111847 0.274550 -1.081521 0.176639 -0.503404 -0.239516 0.163402 -0.142024 -0.712277 -0.355715 0.843150 -0.468252
783 -0.045683 -1.207705 0.034302 0.421912 -0.488036 -1.510235 -1.547599 -0.494009 0.680417 0.683183 0.018441 -0.267009 -1.049691 -0.600155 -0.147794 0.251327 -0.209345 0.628050 0.149015 -0.005454 0.174421 -0.741253 -0.144728 -0.315393 0.596521 0.099581 0.251290 -0.130102 0.360057 -0.432031 -0.433998 -0.033255
512 0.053374 -0.009949 0.252011 0.040341 -0.813166 0.329987 0.217223 -0.574540 0.336869 -0.253583 -1.055539 -0.054312 -1.029542 0.633011 -0.179865 0.376909 0.279831 0.540142 -0.323588 0.101499 0.499144 -1.047987 0.326507 0.134911 -0.789408 -0.934621 0.942979 0.692962 1.026687 -0.302000 -0.981538 -0.302786
48 -0.127136 -0.431143 -0.132180 -0.185748 -0.969702 -0.711787 -0.055004 0.015367 -0.154564 0.123125 -0.091204 0.163161 0.754562 -0.317759 -0.305607 -0.417829 -0.168105 -0.189670 -0.121931 -0.837485 -0.446767 0.449774 0.243901 -0.321316 -0.852119 -0.826022 -0.778258 0.110540 -0.114452 -0.495716 0.745204 0.153784
20 0.310019 -0.241785 0.072478 -0.268091 -0.082148 -0.031099 -0.701906 -0.297613 0.569382 0.382576 0.047363 -1.086135 0.081948 -0.051028 -0.195493 0.321586 0.815266 -0.141653 -0.037254 0.199680 0.451754 0.944141 0.181354 0.190734 -1.399811 0.493651 -0.240090 -0.114437 -0.748687 -0.689398 0.112546 -0.295381
215 -0.147840 -0.454440 0.928421 -0.390734 -0.699431 0.271142 0.079111 -0.638779 -0.079028 0.213759 -0.558475 0.355967 -0.203482 0.567859 -0.630736 -0.105744 -0.506413 0.514882 -0.171335 -0.510061 -0.511985 0.089125 -0.130039 0.053801 -0.116621 -0.419458 0.093943 0.710396 -0.433386 0.242487 0.791875 -0.686527
479 0.035505 -0.155127 -0.722005 0.409860 -0.326648 -0.033085 -0.672705 -0.741714 -0.027265 -0.169226 -1.150044 0.456272 -0.558912 -0.102472 -0.497696 0.454868 -0.951451 0.500122 -0.620755 -0.505666 0.532668 0.613478 -0.013926 0.115539 0.248682 0.431313 -0.160877 -0.279169 -0.015689 -0.652405 0.469036 -0.451329
603 -0.648833 -0.079764 -0.411686 0.973745 -0.295078 0.237994 -0.546703 -1.232670 0.233825 -0.731202 -0.834297 0.414020 -0.086427 -0.066052 -0.373678 -0.148067 0.319362 0.254314 -0.295332 -0.628146 0.084595 -0.079204 -0.134903 -1.030568 -1.284642 0.429174 -1.026405 0.707328 -0.097116 -0.421919 -0.566799 -1.331824
364 0.324181 0.083753 0.119116 0.623710 -0.442655 -0.343443 -0.524954 -1.027453 0.754615 0.493398 -0.668102 -0.396366 0.043499 0.745451 0.883953 0.219437 -0.467924 0.596711 -0.108252 0.002352 -0.557093 0.094154 0.785130 -0.305324 -0.484415 0.734324 0.751961 0.110318 0.815415 -0.279973 0.890664 -0.175479
316 -0.067252 -0.313780 -0.061720 0.477603 -1.814314 -0.878980 0.022743 -0.514541 -0.280261 0.355547 -0.122819 -0.762219 0.068444 0.042402 -0.501057 0.498300 0.643410 -0.680977 0.503058 -0.100474 -0.658330 -1.290091 -0.914677 1.226896 -0.457579 0.291518 -1.065541 -1.000325 0.459778 -0.303185 -0.175184 -1.251237
244 0.025766 -0.674789 0.134508 -0.013914 -1.095910 0.231240 -0.834709 -0.824102 0.000179 0.604640 0.045686 0.364301 0.157342 -0.099579 -1.237871 0.126360 -0.124763 0.072494 0.230406 0.036665 -0.322625 0.288845 -0.768766 -0.599426 0.118591 -0.200651 0.046170 -0.496346 0.336607 0.058798 -0.217824 -0.364859
649 0.202221 -0.611840 0.460024 0.820054 -0.667406 0.931071 0.110381 -0.745577 0.539718 0.824567 0.225711 -0.087143 -0.094117 -0.321668 -0.964135 -0.491611 0.321080 0.093943 0.569694 -0.887994 0.712917 0.853896 0.146761 0.476331 -0.187143 -0.307675 -0.557853 0.443001 0.028784 -0.620545 -0.534953 0.224016
581 -0.068301 -0.478795 0.529616 -0.355640 -1.682308 -0.028891 -0.035011 -0.447850 -0.010220 0.247031 -0.262661 0.418330 0.329429 -0.426594 -1.136821 0.346522 0.018264 0.362106 -0.430700 -0.382053 0.005968 0.380696 -0.010769 -0.481055 -0.757657 -0.710171 -0.554941 0.495176 -0.443131 0.618148 0.517653 0.071164
206 -0.042028 -0.061218 -0.788471 0.124603 -0.522872 -0.564427 -0.804576 -0.250635 -0.910225 0.080952 -1.170113 0.521106 0.024155 -0.365173 -0.361148 0.754682 -0.243177 0.627715 -0.195978 -0.534513 -0.053134 1.209828 0.209977 0.609253 -0.550627 0.492775 0.600918 0.543595 0.501868 -1.228171 0.302050 -0.607152
135 0.140917 -0.081754 1.509027 0.329921 -0.867344 -0.554316 -0.229736 0.414695 -0.261836 -0.156121 -0.076666 0.578930 -0.403198 0.064608 0.448016 0.288433 0.537581 0.384944 -1.087139 -0.670944 -0.363819 0.376649 -0.203438 -0.455993 0.210107 0.138493 0.430941 -0.432587 -0.112486 -0.670290 -0.463157 -0.429672
84 -0.478593 -0.550345 0.331973 -0.417905 -0.797319 0.315171 0.477024 -0.345965 0.539316 -0.172168 -0.145567 -0.185640 -0.161266 -0.272372 -0.310492 -0.302343 0.070510 0.418249 -0.416274 0.019095 0.192383 -0.022425 0.511141 -0.043425 -0.535508 0.254452 0.130551 0.698281 0.437663 -1.538084 -0.320248 0.003827
317 0.130129 0.423166 0.884790 0.089031 -0.996420 -0.212158 0.129591 0.192903 -0.151709 -0.016678 -0.237545 0.001438 -0.371284 -0.451520 0.135329 0.285060 -0.153616 0.860643 -0.833309 -0.494552 0.043673 -0.216589 0.119440 -0.445358 0.417205 -0.339232 0.058207 -0.393837 -0.208243 -0.972838 0.223042 -0.516886
499 0.074906 -0.520970 0.928479 0.504755 -0.076988 -0.067634 0.248784 0.396344 0.683617 0.047412 0.060559 0.594881 0.420108 0.565807 -0.587916 1.000318 0.418173 0.342135 -0.518590 0.118790 1.137533 -0.109638 -0.032452 -0.913473 -0.631308 -0.217581 -0.862092 0.928598 0.810116 -0.436120 -0.009831 -1.558194
216 0.231539 -0.692838 1.051683 -0.039890 -0.744912 -0.069876 -0.726535 0.938989 -0.788776 0.366338 -0.076814 0.001025 -0.213144 0.049659 0.471664 0.195490 -0.228656 0.538784 0.063348 -0.036228 0.489358 0.130179 -0.062887 -0.359015 -0.665271 -0.372497 0.272758 -0.600811 0.520460 -0.254361 -0.210291 -0.399366
416 0.379201 0.205375 1.488351 0.142423 0.489369 -0.196883 -0.595553 -0.260310 0.323192 -0.438059 -1.146136 -0.670209 -0.285119 -0.664727 0.138953 0.001683 -0.335909 0.303702 0.034165 0.111965 0.426691 0.598141 0.159774 -0.514228 -1.051367 0.165423 0.324583 -0.682711 -0.478378 -0.414635 -0.369049 -0.366033
185 -0.213429 -0.705961 0.665582 -0.427619 0.051972 0.237309 -0.436966 -0.718215 0.493553 0.282824 -0.262873 -0.689218 0.093463 -0.531270 -0.091361 0.744381 0.951333 0.006630 0.473321 -0.242835 -0.166259 0.540199 -0.780255 0.028808 -0.327453 -0.066325 -0.223421 0.154942 -0.640338 -0.368125 -0.143986 -0.322014
378 -1.419052 -0.122861 0.001930 1.083019 -0.516867 -0.451269 -0.287852 -0.940286 0.063479 0.518742 -0.275803 -0.604414 -0.242545 -0.205816 1.052731 0.131440 0.826349 -0.150082 0.577273 -0.496342 1.051476 -0.551573 -0.319761 -0.208167 -0.591625 -0.428569 0.386189 -0.213465 -0.422171 -0.337847 0.422496 -0.173318
719 0.063024 -0.681814 0.615666 0.261971 -0.210996 -0.045704 0.895672 -1.339380 -0.470003 -0.220632 -0.460956 0.099668 0.357628 0.662147 -0.055378 -0.189537 -0.018873 -0.407357 -1.322674 0.082323 -0.084477 0.386218 -0.706131 0.079196 -0.509388 0.213194 0.659608 0.066747 -0.599976 -1.245389 -0.124118 0.912374
548 -0.087092 -0.919630 0.291530 0.378034 0.278347 -0.370118 0.287525 -1.105466 -0.737773 -0.008097 -0.691794 -0.002355 -0.182334 0.154883 0.490393 0.305188 0.382512 0.281712 -0.820489 -0.516452 0.272237 -0.595188 -0.691419 0.073079 -0.543236 0.347231 -0.454127 0.135100 -0.491043 -0.859475 0.065559 0.719080
433 0.774615 -0.187568 0.442692 -0.771063 -1.353813 -0.732292 0.556893 -0.585333 0.111976 0.310849 -0.703476 0.472135 -0.352565 -0.661714 -0.739197 0.395256 -0.028567 -0.124250 -0.120076 -0.426324 0.232882 -0.241313 -0.123532 -0.210622 -0.646109 -0.316081 -0.416166 -0.294203 -0.434899 0.339101 0.664975 0.296929
318 0.114414 -0.282264 0.899204 0.747961 -1.155752 -0.737387 -0.293253 0.273400 -0.678200 -0.229627 -0.037714 0.058657 -0.711148 -0.241014 -0.349219 0.272519 1.076271 0.247635 -1.047233 -0.693768 0.122385 0.163027 -0.519497 -1.240594 -0.305848 0.181692 0.150226 -0.231295 0.210552 0.366467 -0.419167 -0.619976
129 -0.264504 -0.353282 0.418429 -0.228667 0.461063 -0.348437 -0.368034 -0.234160 -0.075936 0.908140 -0.279642 0.515717 0.034816 0.294690 -0.433161 0.610382 -0.287656 0.042017 -0.744421 -1.147051 -0.641487 0.935488 -0.606507 -0.776225 -0.234117 -0.296714 -0.137823 -0.272355 -0.278992 -0.293797 0.233295 -0.025901
510 -0.154324 -0.894942 0.347557 -0.093645 -0.608554 0.193631 0.891432 -0.915314 -0.248323 0.710797 -0.435807 0.202389 -0.296113 0.119105 -0.024212 0.130538 -0.384034 0.148104 -0.331637 0.456371 -0.179962 0.569257 -0.387719 -0.747803 -0.246318 -0.899480 -0.113825 0.197517 -0.302646 -0.082935 -0.647635 -0.012153
779 0.369112 -1.155115 0.717417 -0.339695 -0.697531 0.967179 0.677407 -1.143894 -0.389932 -0.075657 -0.650617 -0.069366 -0.521208 0.769065 -1.058829 0.298695 -0.038058 0.549496 0.417161 -1.402734 -0.082538 0.085615 0.183612 0.536441 -0.793177 -0.352182 0.055004 -0.208167 -0.551024 0.414081 0.318426 -0.673792
429 -0.216954 -0.805598 0.586276 0.255632 -0.876517 0.592916 0.064230 -1.208121 0.494690 -0.602707 -0.671213 0.030023 0.037004 -0.233035 0.217508 0.534907 -0.284051 -0.365960 0.086711 -0.804925 -0.240509 0.126396 -0.102763 0.226626 -0.404105 -0.583616 0.691612 0.104015 -0.170762 0.416997 0.144116 0.065824
245 0.595560 0.022234 0.375250 1.144457 -0.673947 0.286178 -0.775381 -0.329609 -0.048352 0.258182 0.134382 -0.597475 0.370124 0.547698 -0.302109 0.727127 -0.548011 -0.086396 -0.154715 -0.189557 0.068123 0.258155 0.246733 0.294318 -0.564185 -0.091710 0.024010 0.339046 -0.122291 0.151482 -0.758817 0.327974
39 -0.694283 -0.661081 -0.081420 -0.619993 -0.302128 -0.212582 -0.532600 0.015475 -0.177534 -0.097530 0.047556 -0.599352 -0.496905 0.274660 0.225553 0.175944 0.170239 -0.156959 0.478883 -0.627091 -0.108070 0.979592 0.892859 -0.041184 -0.812180 -0.510862 -0.120663 0.362255 0.230406 -0.411514 -0.200262 -0.394836
402 0.596254 -0.027882 -0.163925 -0.136588 -0.229747 -0.243399 -0.663515 -0.396804 0.579287 0.128167 -0.756073 -0.162185 0.425664 0.431616 0.319552 0.248510 0.425705 -0.181973 -0.514011 -0.666718 0.156297 -1.271062 -0.195124 -0.475398 -0.334433 -0.188105 0.307932 0.760113 0.242216 -0.669872 -0.153171 0.470158
145 -0.197006 -1.003245 1.046636 -0.113020 -0.474085 -0.299669 -0.868224 0.043870 -1.120890 0.244579 -0.044515 -0.625946 0.048337 -0.131300 0.035509 -0.404477 -0.143503 -0.436895 0.262298 -0.067425 1.072865 0.119940 0.128392 -0.349692 0.080210 -0.439949 0.921467 -0.463502 0.737164 -0.113025 -0.022961 -0.683544
91 0.924757 -0.423230 0.368781 0.447823 -0.302689 0.083475 -0.703378 -0.088862 0.091393 1.486636 -0.833502 -0.004411 0.767623 -0.496026 0.634756 0.072127 -0.143111 -0.706559 -0.577550 0.034712 -0.538466 -0.178031 0.933874 0.051716 -1.200357 0.229297 0.051367 -0.031530 0.891452 -0.647215 0.833889 -0.089033
549 0.551212 -1.548510 -0.070948 0.535734 0.634554 -0.536267 0.151855 -0.004382 -0.244424 0.805392 -1.104827 -0.311527 -0.022436 -0.243067 -0.057573 -0.656201 0.360328 0.007270 -0.118909 -0.690979 0.164885 0.127871 -0.623431 -0.545990 -0.698175 0.456815 0.051111 0.272865 0.383235 -0.343340 -0.612732 -0.281127
788 0.670112 -0.804306 0.318902 -0.302375 -0.012419 -0.297152 0.218916 -0.560505 -0.108926 0.682815 0.037682 0.028669 -0.181061 0.392885 0.684399 1.211327 0.141421 -1.698601 -0.640889 -0.038379 0.008599 0.560604 0.296538 -0.174912 0.759934 -0.779989 0.045389 0.465402 -0.043770 -1.044998 -0.064181 -1.022935
197 -0.442162 -0.435247 -0.028828 0.339818 0.211840 -0.513948 -0.640480 -0.745423 -0.950820 0.464886 -0.591221 -0.301260 -0.282764 -0.724320 -1.609023 1.477755 -0.368063 0.339797 0.002941 0.117808 0.568491 0.525395 0.310845 0.011736 -0.055800 -0.226118 0.287322 -0.018094 0.665166 -0.589617 -0.001459 0.081326
751 0.059920 -0.424438 0.927648 -0.350548 0.531088 -0.404859 -0.785404 -0.165836 -0.538427 1.298790 -0.232029 0.068912 -0.257095 0.887925 -0.013565 0.284274 -0.006729 0.229651 -0.204935 -0.757340 0.022920 0.600079 -0.651978 -0.426073 -0.019004 0.322857 -0.038049 -0.128808 0.446063 0.062293 0.194543 0.085357
431 -0.490249 0.214385 -0.104624 -0.078474 -0.711069 -0.385325 0.395261 -0.724816 0.025274 0.713285 0.123844 0.157295 -1.011652 0.038113 0.207457 0.488436 -0.296579 0.560744 0.262944 -0.782734 0.172395 0.081863 -0.093693 -0.258159 0.402321 -0.389158 0.411195 -0.337608 0.329411 -0.400930 -0.009515 -0.511525
359 0.364541 0.000390 0.571548 0.499567 -0.521173 -0.617637 0.257325 -0.045097 0.246175 1.226334 0.064603 0.188652 -0.468183 -0.164036 -0.370572 0.299617 -0.269706 -0.130427 0.388595 0.661699 -0.101900 -0.268771 0.142152 -0.562013 0.133667 0.046587 0.308637 -0.188260 -0.577649 -1.243282 0.743825 -0.180945
410 0.650255 -0.550802 0.319213 0.034361 -0.502759 -0.484365 -0.358431 0.129784 0.159252 -0.052018 -0.812454 -0.041771 0.498100 0.541510 -0.890723 0.339677 1.038653 -0.157210 -0.129540 -0.165332 0.102080 -0.616035 0.913760 -0.758056 -0.368653 -0.478626 -0.318557 0.950220 0.077617 -0.065878 0.210594 0.256911
564 0.465046 -0.881698 0.018104 0.216453 0.361473 -0.515846 -0.276755 -0.628749 0.581271 0.630540 -0.529400 0.730504 -0.539734 -0.350619 0.028718 -0.149694 -0.989885 0.284776 -0.675480 -1.086811 0.529738 0.341068 0.294974 0.128278 -0.540988 -0.844803 0.617722 0.861401 -0.538057 -0.226825 -0.534870 -0.541803
683 0.569147 -0.603887 0.009996 -0.210767 -0.060002 -0.123011 -0.494163 -0.687439 1.017799 1.398791 -0.426613 0.215871 0.678069 0.445318 0.961540 0.256267 -0.682692 0.420734 -0.530430 -0.404780 0.124778 -0.414848 0.507515 -0.143385 -0.357952 0.411834 0.201484 -0.204028 0.634805 -0.483789 0.518787 -0.444712
80 0.308325 -0.269989 0.186548 -0.645329 -0.142387 -0.458533 0.257265 0.236009 -0.005468 0.617532 0.388263 -0.128722 -0.049298 0.147854 -0.089749 0.986270 0.238542 -0.560635 -0.725781 -0.700310 0.745432 0.534339 -0.327026 -0.440829 0.228136 -0.136650 -0.363308 0.488553 0.193644 -0.695229 -0.105963 -0.769630
111 0.291319 0.334738 0.609678 -0.137842 -0.626127 -0.544444 -0.199046 -0.473595 0.378167 0.888523 -0.171856 -0.774659 -0.838360 -0.244378 0.457059 0.212521 -0.330416 -0.629813 -1.299129 -0.039834 0.116575 -0.002598 -0.745556 0.354681 -0.202302 -0.783182 0.272372 0.171707 -0.156477 0.156120 0.741415 0.129616
403 0.283308 0.192368 -0.086522 0.102551 -0.180919 -0.769961 -0.624594 -0.567769 -0.357350 -0.053565 -0.950069 -0.241261 -0.249654 -0.177443 -0.111245 0.424058 -0.561120 -0.438526 -0.462951 -0.299472 0.394919 -0.264848 -0.184322 -0.650328 -0.151683 -0.097600 -0.330251 0.214736 -1.228167 -0.719292 0.518839 0.825403
41 0.262158 -0.550416 0.069161 -0.254762 -0.112051 -1.124825 -0.725528 -0.234071 0.335181 0.089534 -0.001743 0.158488 -0.098730 1.008545 0.047214 0.419026 -0.338558 -0.160800 -0.195548 -0.478251 -0.114660 -0.143313 -0.585749 0.527903 -0.071197 -0.100398 0.188664 0.036120 0.254196 -0.028679 0.225436 0.111773
136 -0.317565 -0.568433 0.748617 -0.063996 0.386533 -0.371377 -0.412647 0.602714 -0.646313 1.244064 -0.838142 -0.604109 0.677182 0.803882 0.011300 0.204204 0.593371 -0.160417 -0.576490 -0.918606 -0.343331 0.064427 -0.246473 -0.403554 0.459693 0.447923 -0.011426 -0.243489 0.710712 -1.040201 -0.247382 -0.264756
573 0.280414 -0.637155 0.235230 0.195357 -0.405075 -0.348663 0.394877 -0.755142 -0.281453 0.562489 -0.845802 -0.062144 0.342777 0.251967 0.099678 -0.991420 -0.767297 -1.295722 0.070451 0.315530 0.300296 1.148618 0.307816 -0.991000 0.220181 -0.162475 0.102556 -0.990646 0.038391 -0.557618 -0.041051 -0.641709
362 0.826103 -0.165447 0.174500 0.561792 -0.214339 -0.154267 -0.549181 -1.157566 -0.078654 0.083603 -0.445880 -1.381215 -0.247721 0.000783 0.130267 0.255343 -0.698552 0.493510 0.936065 0.040342 0.163335 0.541266 -0.142101 -0.891409 -0.288545 0.196562 0.045482 0.800842 -0.847073 -0.027387 -0.236204 0.070407
264 0.355888 -0.064774 0.571880 -0.332679 -0.497123 -0.318180 0.380239 0.560315 -1.284327 0.500469 -0.605195 -0.535737 0.030909 0.362871 -0.114346 0.229558 -0.654514 0.804138 -0.308142 0.265929 0.509127 -0.134446 0.154965 0.141111 -1.153360 -0.721682 0.117691 -0.458502 -0.178625 -0.642186 -0.170126 -0.646860
121 0.324869 0.259818 0.789026 -0.096949 -0.161547 -0.221001 -0.522902 -0.551623 0.116541 0.418331 -0.679625 -1.149622 0.679979 0.598530 0.570778 0.261440 -0.124953 -0.060145 -0.362336 1.042593 0.906290 0.528594 -0.883575 -0.124618 0.002970 -0.539548 -0.177615 0.250335 0.005067 -0.309401 -0.878163 -0.285094
109 -0.616602 0.070629 0.418594 0.861723 0.063130 -0.719856 -0.517279 0.314674 0.510421 0.579882 -0.482393 -0.810134 -0.193327 0.071804 0.348317 0.480810 0.192881 -0.151139 -0.444672 0.016108 -0.204182 0.460331 -0.376405 -0.054207 -0.315555 -0.836021 0.554221 -1.084657 -0.781644 -0.677457 -0.029565 -0.121838
888 -0.577286 -1.060821 -0.226079 0.111873 0.416859 -0.272937 0.105586 -0.197918 -0.363208 0.625285 -0.061956 -0.898075 0.721054 0.567519 -0.394666 -0.201962 -0.559996 0.649636 0.744151 -0.755838 0.474178 -0.299932 -0.452926 0.414886 -1.277889 0.526501 -0.226662 0.200979 0.227354 -1.284131 0.437484 -1.214229
514 -0.307106 -0.306020 0.210810 0.323012 0.206309 0.381217 -0.488329 -0.713292 -0.105138 0.620458 -0.611291 0.606916 -0.350818 -0.036252 -0.501648 0.022335 -0.716847 0.303804 -0.926492 -0.792887 -0.125654 0.273079 -0.224397 0.222547 -0.149455 -0.468862 0.163189 0.499630 -0.078520 -0.123849 0.299698 -0.561149
746 0.035237 -1.745544 0.686767 -0.734943 -0.906603 -0.233431 -0.716601 -1.268544 0.535644 0.877481 -0.526388 -0.686945 0.445890 -0.115639 -1.017871 -0.395082 0.330154 0.919879 0.142666 0.127000 0.255757 -0.063634 -0.718266 0.124445 0.176197 -0.837873 -0.255174 -0.215105 -0.634388 0.276878 0.471823 0.250927
54 -0.359019 -0.013623 0.320020 0.643590 -0.072861 -0.758781 -0.042016 0.253463 0.375211 -0.147407 -0.739405 -0.427493 0.430421 0.134858 -0.678973 0.606821 0.397034 0.264661 -0.460207 0.422124 0.077525 0.422480 0.321994 -0.562625 -0.146636 -0.773484 -0.123268 0.229531 -0.165648 -0.054308 -0.065013 -0.205619
331 0.513528 0.596653 0.499515 -0.190225 -0.916442 -1.040977 -0.669223 0.066550 -0.220945 0.379773 -0.848286 -0.318649 -0.229794 0.763589 0.343440 -0.936702 0.043824 0.553924 -0.266820 -0.350702 0.033267 -0.227180 -0.959839 -0.523819 0.224892 -0.501863 -1.170666 0.515660 -0.754294 -0.538544 -0.200087 0.108671
405 -0.987010 0.141559 0.685443 -0.437038 -0.777902 -0.970922 0.707242 -0.227518 -0.056827 -0.219484 -1.285391 -1.191500 -0.575582 0.124500 -0.487329 -0.357421 -0.508539 0.193290 0.152958 -0.309509 0.051219 -0.009592 0.245513 0.302715 -0.058982 -0.035239 -0.103649 0.216974 0.401823 0.049393 -0.767237 -0.188025
469 -0.868627 0.162007 0.572183 -0.748393 -0.242801 -0.268164 -0.397724 -1.355912 -0.181363 -0.297174 -0.109676 -0.408445 0.093375 0.228956 0.034769 -0.375409 -0.023195 0.425611 0.522500 -0.359261 -0.055988 0.560174 1.001353 -0.110208 -0.454401 -0.859689 -0.566390 0.218544 -0.279064 -0.428137 -0.671334 -0.525672
636 -0.311976 -0.577916 -0.605550 0.359899 -1.149016 -0.673099 -0.969116 -0.954916 0.657323 -1.512730 -0.970097 0.883749 -0.511060 0.457645 -0.230085 0.292712 -1.188878 0.162630 -0.555076 -0.685282 -0.034911 0.542238 -1.009165 -0.484466 -0.147579 0.682814 -1.049146 -0.274862 -0.126803 -0.422040 -0.250284 -0.406555
470 0.266388 0.017957 0.317105 0.151637 0.199386 0.026852 -0.096980 -0.642781 -0.060256 0.413015 -0.430701 -0.233612 -0.165634 -0.082585 0.293811 -0.178888 -0.881633 0.440511 0.614987 -0.319500 0.194324 1.296392 -0.263811 -0.664289 -0.176440 -0.750435 -0.601278 0.119532 0.516673 -0.588936 -0.396622 0.154619
217 -0.182212 -0.392516 0.467832 -0.022184 -0.456713 -0.880375 -0.234971 -0.315944 0.050391 0.292479 0.139267 0.241187 0.632676 0.233745 -0.488364 0.279287 -1.119327 -0.222165 -0.348805 -0.781121 -1.171076 0.540883 -0.876449 -1.277897 -0.004160 -0.032909 -0.159464 -0.485046 0.066670 -0.404199 0.088753 -0.385033
795 -1.266273 0.336807 0.439371 -0.559538 -1.074790 -0.875809 1.054287 -0.344679 -0.014927 0.800130 -2.287416 -2.062279 -1.244116 1.717814 -1.263259 0.190788 0.410374 0.762735 0.397436 -0.648481 -0.394421 -0.598659 0.217282 -0.235120 -0.605067 -0.015070 0.002098 -0.704717 0.967466 0.298655 -0.668316 0.297727
81 -0.263240 -1.263953 0.625623 -0.227143 -0.008994 -0.018393 -0.367619 0.026140 1.481655 0.836417 -0.587942 -0.528926 0.560271 0.299898 -0.164474 0.313047 -0.007650 0.266550 -0.558762 -0.371779 0.304750 -0.574676 0.060075 0.098067 0.512372 0.199887 -0.155744 -0.245608 1.027644 -0.984800 -0.303644 0.113464
236 -0.089568 -0.374834 1.038190 1.352922 -0.336343 0.047746 -0.369583 0.036869 0.442350 -0.135783 -0.181108 0.058338 0.348882 0.164192 -0.989521 0.375419 -0.300324 0.111306 -0.723692 -0.245786 -0.180711 -0.007762 -0.185217 -0.291349 0.018846 -0.642120 -0.484653 0.457524 0.049069 -0.052574 -0.821618 -0.040480
418 0.211519 -0.081189 0.488228 0.370889 -0.119238 -0.117983 0.577866 -0.708057 0.235676 -0.492063 -0.734803 -0.190848 0.049184 -0.161075 -0.102681 0.453836 -0.955936 -0.019223 -1.113326 -0.387192 0.101286 0.286855 -0.006799 0.090658 -1.204894 -0.061690 1.072963 0.579781 -0.929218 -0.817203 -0.157346 0.525119
3 0.439278 -0.303981 0.415710 -0.319377 0.192224 -0.576631 0.121522 -0.563877 0.646865 -0.424047 0.300662 -0.362307 -0.114631 -0.334486 -0.900853 0.881270 0.234321 -0.127742 0.271976 -0.530168 0.448007 0.424813 -0.199394 0.472451 -0.527959 -0.548595 -0.449464 0.066371 0.100534 -0.264174 0.270118 -0.206276
102 1.158646 -0.557382 1.291141 -0.020293 0.182976 -1.104666 -0.086473 -0.608340 1.035331 -1.404329 -0.148490 -0.923618 -0.953792 -0.644640 -1.396992 0.980994 -0.595214 -0.056181 0.622570 -0.952150 -0.028969 -0.367622 -0.405066 0.479749 -0.379409 -0.859153 -0.866279 -0.501403 0.341726 -0.538166 0.329400 0.240453
725 -0.003398 0.845370 0.725884 -0.660166 -0.251221 -0.646014 -0.722103 -0.773466 0.075432 -0.220373 -0.080443 -0.383668 -0.029051 0.342560 -0.253323 -1.042243 -0.045759 0.456722 0.070347 -0.275197 0.688850 0.541729 0.284593 -0.978677 -0.827644 -0.640046 -1.079524 -0.111476 -0.581147 -0.620907 -0.555943 -0.913603
254 -0.196970 -0.881221 0.269996 -0.070874 0.322858 -0.591059 -0.042354 -0.606596 -0.640566 0.017382 -0.203481 0.209153 -0.122978 0.462504 0.053017 0.469346 -0.276906 -0.490104 -0.516610 -0.498924 0.345491 0.724778 -0.198634 -1.110645 -0.720196 -0.779026 -0.375924 -0.143097 -0.609183 -0.043782 0.461650 0.829638
325 1.547210 -0.936890 0.163257 0.127565 -0.867319 -0.539163 0.103561 -0.407847 0.512014 -0.614691 -0.170528 -0.205057 0.474493 0.580160 0.443412 0.422049 0.712963 -0.487934 0.487810 0.301802 0.183516 -0.562860 -0.554421 -0.519768 0.402534 -1.302651 0.460692 -0.342212 -0.087662 -1.590814 -0.248678 0.083397
770 0.933267 -0.118442 0.784883 0.244728 0.186305 -1.348537 0.007801 0.451019 -1.722273 1.006015 -1.872143 -1.061479 0.432311 1.045906 -0.772267 0.194117 -1.242157 0.264634 0.198192 0.560755 -0.589950 0.533201 -0.087099 1.119656 -1.644897 -1.867967 0.081671 -1.383121 0.238193 -0.766475 0.146478 0.123644
652 0.644270 -1.046571 -0.046459 0.056397 -0.392511 1.058031 0.669167 -0.095965 -0.283828 0.484735 -0.890483 -0.453360 -1.014108 0.543306 -1.024230 0.225610 -0.171034 0.456704 0.679440 -1.443391 0.894560 0.241518 0.293257 0.500019 -0.824727 -0.118339 -0.400124 -0.143644 -0.068752 -0.684907 0.571969 0.242888
71 -0.557102 -0.464923 0.561298 -0.450265 0.054136 -0.459369 0.345385 0.108552 0.922365 0.329549 -0.697021 0.490713 0.181575 0.176890 -0.281344 0.065202 -0.143035 -0.563330 0.727788 -0.643474 0.386854 -0.268655 0.257114 0.203941 -0.683900 0.683873 -0.268866 0.878048 -0.021617 -1.399881 0.202436 -0.346425
550 0.089023 -0.730680 0.920926 -0.283710 0.759233 -0.994267 -0.336054 -0.785998 -0.024183 -0.567333 -0.901826 0.885732 -0.912490 0.573333 -0.104327 -0.133834 -0.366517 -0.645338 0.360989 -0.379496 0.409199 0.135597 -0.703497 0.191134 -0.286203 -0.204554 -0.689757 0.295588 0.593599 -0.382196 0.014767 0.191611
471 1.227895 -1.146994 0.793675 -0.654128 -0.851354 -0.193299 0.707455 -0.614026 -0.779772 0.314886 -0.922831 0.231100 -0.308658 0.537055 -0.837756 0.659081 0.558650 0.140716 -0.146614 -0.655823 0.311424 -0.239227 0.317541 -0.071858 -0.853283 -0.107464 -0.493301 -0.287138 -0.466175 0.682606 0.892441 0.175782
611 0.531915 -0.991696 0.705374 1.230828 0.336163 -0.200315 0.404547 -0.035583 0.431441 1.022260 -0.862369 0.152717 -0.209692 0.222341 -0.044010 -0.675525 0.192136 0.412465 0.156100 -1.457155 0.549128 -0.300355 -0.239998 -0.311648 -0.168262 0.054255 0.282954 -0.399205 -0.052372 0.028989 0.041398 -0.252794
214 -0.287167 0.019228 1.196916 0.003933 -0.825673 -0.406610 0.599544 0.013652 0.131739 -0.185053 -1.081454 -0.237502 -0.994812 0.016621 0.278101 -1.245548 0.243138 -0.244764 0.312396 -0.471054 -0.290549 0.375928 -0.346888 0.491061 -1.149748 0.290884 -0.083296 0.579341 0.221479 -0.226752 0.281365 -0.541983
539 0.377382 -0.463059 0.796749 0.079188 0.579592 -0.183931 -0.448148 -0.165380 0.798576 -0.230249 -0.813163 -0.557131 -0.555608 -0.444845 -0.302432 0.276398 0.063208 0.251836 -0.381579 0.088252 0.638280 0.451903 0.285821 0.289777 -0.522166 -0.120403 0.250158 -1.304214 -0.667952 -0.797344 -0.533760 -1.052590
113 -0.191968 -0.072458 0.400125 -0.120888 -0.247945 0.314922 -0.489289 -1.118341 0.322963 0.518097 -0.397961 -1.083385 -0.370418 -0.711099 0.233529 0.687844 0.227478 -0.029624 -0.061569 0.153414 -0.178738 0.242675 -0.858725 -0.374983 -0.195550 -0.052126 0.208848 0.220067 -0.320166 -0.061514 0.002396 -0.159397
544 -0.111934 -0.635821 -0.011707 0.530201 -0.149503 0.066558 -0.987273 0.142953 0.962859 0.173538 -1.023808 -0.186161 -0.412917 0.708142 -0.050458 0.062807 -1.162787 -0.647877 0.006189 0.118198 -0.570901 0.288439 -0.167925 0.078776 -0.080154 -0.229681 0.540332 -0.167177 0.192216 -0.933301 0.589572 0.421343
303 0.412971 -0.412653 0.209610 -0.168537 -0.239553 -0.816900 -0.546995 -0.563095 0.436149 -0.997550 -0.674747 0.510617 -0.567737 0.543842 -0.071891 0.221904 -0.864931 -0.363781 0.163428 -0.980503 0.059625 0.388589 -0.739915 0.276150 0.110369 -0.339961 -0.615195 -0.335843 0.263837 -0.010841 0.070026 0.185412
42 -0.626146 -1.072664 0.392759 -0.154271 -0.532569 -0.599266 -0.539373 -0.332776 1.183097 0.342406 -0.729164 -0.336044 0.617365 -0.057936 0.182921 0.142351 0.759215 0.186297 -0.008127 0.449597 -0.040295 -0.598685 0.437198 0.399413 0.132984 -0.198885 0.126011 -0.523044 0.429097 -0.854964 -0.275810 -0.083957
488 -0.205519 0.306710 0.234225 -0.065763 -1.443137 -0.639404 -0.124389 0.711455 0.382210 0.395038 -0.665845 -0.685628 -0.282230 0.217634 0.392048 -0.523495 0.017960 0.079778 -0.196564 -0.670646 0.001241 -0.253857 -0.389899 -0.518375 0.227898 -1.208296 -1.050465 -0.167939 -0.334804 -0.516638 -0.298072 -0.027010
456 -0.299356 0.030218 -0.275855 0.850010 -0.236444 -0.247244 0.292601 0.245349 0.147840 0.001159 -0.809576 -0.065173 -0.389273 0.831774 -0.834317 0.375788 -0.305279 -0.943014 0.385207 -0.236786 0.868336 -0.230880 -0.911966 -0.213293 -0.938765 0.566738 -0.364215 -0.117337 0.065746 -0.710525 0.507076 -0.010066
880 0.110373 -0.351677 0.194192 -0.258504 -0.756917 -0.202933 0.917907 0.633971 1.267009 1.327914 -1.441778 -0.576812 -0.690735 2.088579 1.002768 2.600840 0.739060 -1.314269 1.493931 -2.137635 -0.155074 1.177606 -0.339466 -0.344223 -0.637013 -2.781726 -0.212647 0.860507 -0.319351 -0.485807 0.710706 -0.406753
497 0.508093 -0.629785 0.565271 0.093018 0.542655 -0.068676 -0.086503 -0.380724 -0.080685 -0.080649 -0.296832 -0.397802 0.038594 0.538693 0.355144 0.084846 -0.688125 -0.167380 -0.380115 0.323805 0.894540 0.602440 -0.923430 0.081245 -0.105661 -0.760572 -0.814144 0.174484 0.003636 -0.721838 -0.684663 -0.137807
366 0.465037 -0.412087 -0.447265 0.452946 -0.917572 -0.414239 0.575211 -0.538679 0.451915 -0.248013 -0.135348 0.334303 -0.480471 0.033376 -0.170750 0.911352 -0.402533 -0.020185 0.075118 0.353644 0.340767 0.336422 0.438972 -0.437444 -0.216382 0.128883 0.273386 -0.548051 -0.523621 -0.684541 0.353991 -1.030646
610 0.024467 0.037907 0.569356 0.450549 -0.168006 -0.140053 -0.192970 -0.742386 0.290763 0.626217 -0.707115 -0.695123 0.661348 0.856080 -0.460205 -0.800981 -0.551392 -0.774502 0.202419 0.152598 0.115352 0.392560 -0.091611 -0.746230 0.166234 0.366174 -0.034151 -0.454992 -0.426407 0.055076 -0.076837 -0.975148
434 -0.113654 0.191707 -0.529927 0.939120 -0.817445 -0.556334 -0.128173 -0.972045 0.362309 0.250632 -0.210778 0.239015 0.039006 0.071535 0.402935 0.387438 0.108550 -0.224991 0.454339 -1.577126 1.161794 0.052967 0.248490 0.498698 0.160447 -0.180745 0.219852 -0.430084 -0.385633 -0.398683 -0.308257 0.199476
287 -0.408425 -0.354869 0.179680 -0.360231 -1.037102 -0.399514 -0.491495 0.155313 -0.150177 -0.404708 -0.989540 -0.863554 0.031808 0.490012 -0.212778 -0.187464 -0.832690 -0.284287 0.555040 -0.398965 0.336132 0.951662 -0.175571 -0.012319 0.286698 0.042590 -0.024147 -0.171528 0.375985 -0.113990 -0.606561 0.101388
536 -0.097692 -1.006953 0.256461 -0.529680 -1.587089 0.401299 0.004735 -0.700208 -0.215213 0.714326 -0.284812 0.416410 0.222895 0.066535 -0.903120 0.205689 0.395434 0.467665 0.066532 0.394967 -0.460337 0.554737 -0.475906 -0.649745 -0.142403 -0.807434 -0.142227 -0.179812 -0.400828 -0.121548 -0.539166 -0.020921
78 0.056889 -1.031292 0.476134 -0.033103 -0.225642 -0.289524 0.196396 0.087042 0.300563 0.662333 -0.082551 0.199022 -0.283310 0.337919 -0.506859 0.222220 0.277271 0.324372 0.498897 -0.715888 0.721219 0.713363 0.257369 -0.101250 0.029305 0.033486 -0.222264 0.768163 0.569283 -0.616883 0.194801 1.004641
133 -0.613580 0.791088 0.381214 -0.745288 -0.237453 0.215436 -0.562143 -0.564926 0.100786 0.662312 0.021776 0.115825 0.537146 0.509781 0.051867 0.567198 -0.080071 0.226981 -0.115284 -0.123930 0.034410 0.540204 -0.035300 -0.540823 -1.280135 -0.116293 -0.088630 -1.068011 -0.372198 -1.246130 0.647888 -0.396935
898 -0.675189 -0.949241 -0.489049 0.981611 0.280334 0.005059 0.064854 -0.969600 -0.850315 -0.160260 -0.242200 -0.272142 -0.112001 0.456693 0.080978 0.810039 0.408206 0.059831 -0.205179 -0.748487 0.762814 -0.426867 -0.908448 -0.726821 -1.367407 0.328441 -0.363716 0.168841 -0.299417 -0.835638 0.540833 0.546162
686 0.055913 -0.099252 0.275129 0.069252 -1.102027 -0.452489 -0.549324 0.970212 0.155005 0.037612 -0.341634 -0.442704 0.275299 0.134430 0.026441 -0.275036 -0.687619 -0.014936 0.172458 -1.248335 -0.385537 0.016818 -0.705070 -0.218234 -0.305732 -1.440520 -1.260116 0.155561 -0.050493 -1.108109 -0.033597 0.431950
213 -0.655939 -0.354106 0.580606 0.425714 -0.514520 -1.152266 -0.073279 -0.696826 0.325291 0.820504 0.000122 -0.229192 0.203511 1.488864 -0.938157 -1.067558 -0.583999 -0.347632 0.180197 0.389763 -0.589943 -0.163054 -1.080282 -0.061634 -0.054330 -0.101850 0.170735 0.442730 0.288373 -0.113687 0.901171 -0.770333
350 0.185582 -0.085765 -0.801251 -0.336736 -1.027750 -0.431589 0.090881 -0.419560 -1.310857 -0.718602 -1.559213 -0.762912 0.666429 0.282761 -0.205879 0.810231 0.270113 0.085772 0.246932 -0.542611 -0.128983 0.248111 0.228289 -0.317073 -0.234735 -0.707824 1.263430 1.296061 -0.056035 -1.230818 0.469518 -0.724213
55 0.667280 -0.640106 -0.009467 0.085352 -0.436280 -0.341694 -0.227217 -0.971432 -0.032868 0.130856 -0.032869 -1.227697 0.293316 -0.278257 -0.198587 0.110153 0.212281 0.260686 -0.906861 0.129817 -0.169330 0.108923 0.145231 0.095074 0.191667 0.183175 -0.354214 -0.095128 0.676685 -0.233295 0.415172 0.071005
115 -0.349661 -0.119646 0.574928 -0.249003 -0.442499 -0.438480 0.058205 -0.672592 0.172749 -0.329008 -0.098093 -0.244714 0.305002 0.109612 -0.394428 0.063922 -1.213054 0.221623 -0.538181 -0.311973 -0.631126 0.467172 -1.110080 -0.434491 -0.249359 -0.224981 -0.271399 -0.548022 -0.181065 -0.304161 -0.244729 -0.518443
952 0.559250 -1.489887 0.276246 0.140996 0.407804 -0.874627 -0.566292 0.462824 -0.624812 1.619779 -1.585307 -0.617837 0.721266 0.122622 0.894710 -0.091047 0.811777 -0.998415 -0.432772 -0.645217 -0.318120 -0.181144 -0.480018 -0.851776 -0.310299 0.650684 0.495559 0.160168 1.167268 -1.032238 -0.495483 0.061535
813 0.023253 -0.431515 -0.559837 0.252469 -0.971306 0.894717 -0.758211 -0.718713 -0.195218 0.648897 -0.055160 0.021186 -0.371893 -0.528837 -1.146993 -0.201820 -0.133047 0.582481 -0.056301 -0.211543 -0.109853 0.208970 -0.842656 -0.708439 -0.300890 -0.211902 -0.191881 -0.063360 0.739013 -1.025416 -0.293547 -0.705074
272 0.481514 0.158074 0.731785 -0.219771 -0.580271 0.126255 0.234517 -0.302978 -0.676795 0.097675 -0.704798 -0.038313 -0.926515 0.152663 -0.553557 0.167658 0.120362 -0.023384 0.243206 -0.207898 0.372420 -0.907387 0.101089 0.357925 -0.760817 -0.311686 0.354027 0.107166 0.040373 -0.247641 -1.446364 -1.234553
453 0.125808 0.338214 0.052051 -0.216131 -0.181695 -0.738209 0.098805 0.199884 -0.250062 0.292906 -1.199207 0.686889 0.462084 -0.450010 -0.462290 0.530184 0.265406 -0.056180 0.258309 -0.922119 0.306674 0.879651 -0.372904 0.463878 -0.485872 0.184591 0.238870 0.698345 -0.086998 -1.128598 0.168683 -0.350302
553 0.245634 -1.001173 0.311622 0.091824 0.769369 -0.195418 -0.495578 -0.518082 -0.126494 0.159298 -0.969473 -0.615818 -0.618869 0.716289 0.653518 0.373694 -0.557721 -0.138939 -0.473935 0.178996 0.461205 -0.270438 -0.854092 0.390047 0.021939 -0.479505 -1.261601 0.867101 -0.767776 -1.011852 -0.413101 -0.212895
235 0.921131 -0.670886 0.602741 0.523237 -0.804662 -0.123608 -0.618454 0.292556 -0.119612 -0.023784 0.017442 0.261288 0.092116 0.207683 -0.258712 -0.149979 -0.485659 0.062066 0.377747 -1.715162 -0.617163 0.527535 -0.677357 0.362282 0.118361 -0.364485 -0.308635 0.620697 0.058135 -0.944211 -0.382374 0.518616
459 0.486313 -0.344403 0.165990 0.271296 0.129299 -0.047847 0.486513 -0.420976 0.613518 -0.453160 -0.809482 0.430688 -0.246492 -0.469579 -0.323406 -0.043163 -0.707583 -0.055252 -0.567959 -0.759628 0.386543 0.504027 0.406905 0.166254 -1.095793 -0.094550 0.807411 0.215317 -0.207915 -0.925836 -0.293677 -0.262852
467 -0.577266 -0.358201 0.615211 -0.457964 -0.350762 0.031317 0.187176 -0.263887 0.520107 0.259041 0.172849 -0.834502 -1.225411 0.200224 1.002768 0.046870 0.759945 -0.703924 0.999385 -0.650182 0.067206 1.256082 -0.187506 -0.187904 -1.071622 -0.704871 0.436397 0.767549 0.038803 -0.470640 -0.137760 -1.030319
618 0.307834 0.775694 -0.238850 0.151167 0.140564 -0.174762 -1.010129 -1.614436 -0.273151 -0.556312 -0.640971 -0.132148 -0.118931 0.371981 -0.326853 -0.163267 0.402880 -0.424422 -0.161361 -0.965681 -0.009242 0.224938 0.081630 -1.316790 -1.223555 0.684873 -0.626196 0.556408 -0.311956 -0.689726 -1.161008 -1.955562
645 -0.953489 -0.221370 -0.440459 0.886793 -0.560837 -0.259641 -0.050812 -1.133223 -0.320640 0.556023 -0.024792 -0.307342 0.226669 -0.003019 0.622019 0.371362 0.543536 -0.510549 0.213247 -1.497656 1.325205 -0.545727 -0.535053 -0.201220 -0.792621 0.209439 0.367976 -0.126195 -0.145648 -0.657843 -0.214387 0.565421
820 0.110626 -0.776671 0.813455 0.287958 -0.318333 0.708141 0.041896 -0.450741 -0.250127 0.312054 -0.312759 -0.094311 0.235064 0.611070 0.180858 -0.166225 -0.452221 -1.202117 -0.180945 -0.175746 0.556017 1.200497 -0.420902 0.207554 0.060247 -0.566655 -0.089759 0.347105 0.260808 -0.315278 -0.239626 -0.058903
173 -0.106488 0.202374 -0.228405 0.853007 0.357117 0.167224 0.016100 -0.676300 -0.062175 0.862781 0.007192 -0.771791 0.290406 1.125761 -1.002078 0.390773 0.087818 -1.115959 -0.807813 -0.872882 -0.622815 -0.043747 0.655403 -0.383365 0.260744 -0.646158 -0.529441 -0.225316 0.623314 -0.923085 0.073824 -0.474088
664 -0.311434 -0.088461 0.952169 1.172859 0.428167 -0.629004 -0.273582 -0.194553 -1.115135 -0.637113 -0.320660 -0.223146 -0.297770 0.924135 0.197986 -0.761085 -0.147919 0.144172 0.634635 -0.468784 0.781364 -0.876833 0.284466 -0.578813 -0.274791 -1.243017 -0.189201 -0.022649 0.565376 -1.087857 0.000497 -0.075609
314 1.243109 -0.173360 -0.037881 1.718810 -0.537982 -0.403221 -0.423038 -0.849315 0.022418 0.294456 0.478826 -1.041449 0.814249 0.198781 -0.440940 0.479654 -0.562751 -0.593733 0.056924 -1.715730 -1.515473 -0.232837 0.072960 -0.069597 0.055246 -0.693707 -0.545510 0.000869 1.301122 -0.451011 1.301382 -1.142791
1027 0.782900 -0.541459 -1.694411 -0.377773 -1.718693 -1.056704 0.194686 -0.519898 -1.900827 -0.313483 -3.012913 -2.273363 1.432146 0.791566 -0.409439 0.784679 0.281198 0.202357 0.573920 -1.129352 -0.471777 0.597687 0.081417 0.038826 -0.843127 -1.222624 0.973249 2.433041 -0.152512 -1.325402 1.154846 -1.291551
179 0.184040 0.232657 -0.085565 0.124664 -0.313682 -0.071466 0.029147 -0.514840 0.784627 0.021175 -0.547559 -0.140050 0.037054 1.040368 -0.311420 0.350440 0.405239 0.058162 -0.506522 -0.392404 0.025209 -1.221811 0.673487 -0.687248 -0.489729 -0.925523 0.458992 0.977403 0.574998 -0.306692 -0.465347 -0.506761
505 0.030658 -0.764596 -0.387691 0.517563 0.295541 0.434513 0.561553 -0.245729 -0.211955 0.073118 -0.542179 -0.396676 0.070322 0.982007 -0.481133 0.507766 -0.164599 -0.021900 0.365379 -0.522152 1.075007 -0.157183 -0.992902 0.022336 -1.145782 0.221636 -0.760118 -0.113860 -0.037121 -0.903056 0.565535 -0.080431
211 -0.436089 -0.059192 0.303667 0.450126 -0.357671 -0.881915 -0.285647 0.062629 0.803966 0.411100 -0.664059 -0.450731 -0.049868 -0.053770 -0.720609 -0.039844 1.122549 -0.300487 0.077662 -0.357976 0.729693 -0.378487 0.737007 -0.368137 -0.403076 0.410247 0.657521 0.252507 0.144031 -0.211368 1.296831 -0.537729
144 -0.089677 -0.112776 0.290006 0.306634 0.354529 -0.562762 -0.367579 -0.709167 -0.931941 0.990217 0.165498 -0.400835 -0.497555 -0.703736 -1.054081 0.962511 0.155866 0.140909 -0.185059 -0.571004 0.735598 0.987330 -0.077559 0.083643 0.240780 -0.579219 0.280350 0.521127 1.137816 -0.403718 0.051061 -0.154160
228 1.022483 -0.310203 0.972308 0.229263 -0.233947 -0.764659 -0.174271 -0.102483 0.403704 -0.239745 0.133520 -0.095090 -0.312438 -0.672243 -0.451627 1.067691 -0.580745 0.073556 0.138278 0.061564 -0.374174 -0.204879 -0.182032 0.313792 -0.539470 -0.772846 -0.268063 -0.299956 -0.409267 -0.722012 0.389201 0.458716
263 0.420353 -0.538867 0.507801 -0.107982 -0.264089 -0.584767 -1.023620 0.414718 -0.246306 1.049862 0.429007 0.086981 -0.856064 -0.327307 -0.038133 -0.185211 -0.525613 0.891437 0.054103 -0.416863 0.982695 0.236699 0.005440 -0.058359 -0.462153 -0.827785 0.269239 -0.470756 1.199196 -0.417472 -0.070694 -0.765903
427 0.019783 0.317644 0.275005 0.065047 -0.329807 -0.074465 -0.070452 -0.355965 -0.214781 0.296639 -0.347708 0.252865 -0.674980 -0.154109 -0.205096 0.818052 0.218121 0.476524 -0.208198 -1.223147 0.497982 0.542134 -0.155070 0.479406 0.547471 -0.694318 -0.787766 -0.218949 0.732024 -0.482552 0.320149 -0.246961
295 0.608545 -0.874148 0.363847 -0.660981 -0.008364 -0.732380 -0.846495 -0.239841 -0.883941 0.720332 -0.422229 0.157282 -0.614897 1.267573 -0.219650 0.592124 0.052379 -0.094483 -0.166725 -0.571464 0.108308 -0.124250 -0.304198 0.155085 -0.447410 0.467462 0.273355 -0.247390 -0.039768 0.195925 0.017465 0.318546
559 0.732363 -0.297507 0.152937 0.881501 -0.631524 -0.227285 -0.191918 -0.775308 0.137193 0.606212 -0.178606 -0.075719 -0.566122 0.208381 0.400419 1.196765 -0.512424 0.943072 0.298223 1.030125 -0.000192 0.646006 -0.411301 -0.359505 -0.877053 -0.425996 -1.033158 0.959292 0.359229 0.176119 -0.662407 -0.089692
1011 -0.238616 0.728198 0.718661 -1.013065 -0.201510 -0.531013 -0.364935 -1.981028 0.185242 0.327281 0.303100 0.789876 0.628041 0.990412 -0.362614 0.293256 0.707856 -0.641216 -0.934614 -0.330224 0.622799 0.388446 -0.557608 -0.109068 -1.629853 -1.001473 0.203482 -0.921858 0.415267 -0.343455 1.082995 -0.448259
274 0.980180 0.208206 0.435480 0.587869 0.184108 -0.919188 -0.949110 -0.256301 -0.273487 0.490859 -0.939754 -0.391526 0.426429 0.448656 0.427873 1.157220 0.548354 -0.508874 0.102685 0.756741 0.795118 -0.511036 -0.397257 -0.343153 -0.093355 0.091652 -0.139170 -0.115199 0.698056 -0.529450 -1.820997 -0.516416
666 0.427116 0.621369 0.517162 0.039772 -0.360868 -1.008279 -0.920347 -0.302848 0.133081 0.135466 0.021419 0.049397 0.214886 0.704998 -0.412168 -1.655790 0.079092 0.456112 -0.022904 -0.270722 0.371320 -0.087028 -0.263432 -0.703853 -0.338653 -0.650260 -1.151691 0.149735 -0.480726 -0.827930 -0.305743 -0.710334
95 0.299098 0.132501 0.408479 -0.343532 -0.837380 -0.739384 0.070356 0.291446 -0.572669 1.169861 -0.040922 -0.104116 0.561701 -0.217027 0.131076 0.008580 -0.600030 0.712520 -0.239714 0.132473 0.434648 -0.645359 -0.042438 0.664521 -1.456936 -0.445436 -0.269375 -0.366298 -0.387401 -0.831372 0.670212 -0.448729
147 0.250768 0.388208 -0.269832 -0.514568 -0.215824 -0.051517 -0.718873 -0.737581 -0.003220 0.805708 0.204960 -0.804212 -0.130544 0.957145 -0.487026 0.102507 -0.626373 0.144907 -0.106560 -0.469933 0.158019 0.318704 0.185472 -0.012892 0.078265 -0.287145 0.500270 0.324486 0.416858 -0.305342 -0.407586 -0.277369
629 -0.302428 -1.101572 1.678762 -1.305089 -1.937832 0.450260 -0.164338 -1.665333 0.259537 0.020710 0.963869 -0.082125 -0.377087 -0.053941 -0.170649 1.074534 0.066916 -0.556458 0.218105 -1.236910 1.270074 0.639725 -1.771559 0.097572 -1.434222 -0.386026 -1.429769 0.206569 1.340437 0.452842 0.524947 0.873960
712 0.507445 0.221513 1.584606 -0.664737 0.059794 0.056208 -0.976754 -0.974384 0.496927 0.617717 -0.097505 -0.559901 0.251759 0.569062 -0.431144 -0.161900 -0.369949 0.275709 0.689059 -0.309175 0.294253 0.456597 0.060129 -0.502823 -0.388059 0.940360 0.388129 0.483417 -0.291134 0.026536 0.081906 -0.517731
446 0.217565 -0.408601 0.730848 0.471480 0.529152 -0.485448 -0.131532 -0.410368 -0.428595 -0.412463 -0.947546 0.693558 -0.715744 0.529270 -0.197682 -0.532223 -0.075481 -0.279031 0.854200 -0.573035 0.323847 -0.417170 0.022992 -0.408396 -0.214076 -0.519339 -0.411920 0.325689 0.113340 -0.455536 0.592344 -0.179932
387 -0.170860 -0.214631 1.095186 0.551721 -0.453392 -0.197501 -0.172677 -0.485446 0.485369 -0.124587 0.137771 -0.641761 -0.448835 0.700385 -0.434271 0.528684 0.839273 -0.060825 0.390428 -0.046092 1.239013 0.156911 0.233468 -0.180827 0.829636 0.023052 1.134775 -0.046138 -0.012727 -0.652568 0.710245 -0.079450
180 0.634135 0.784885 -0.164672 0.637691 -0.252867 -0.349125 0.347445 -0.283922 0.403522 0.175685 0.590605 -0.749271 0.301626 0.637901 -0.736534 0.549615 -0.052733 -0.017323 -0.587081 -0.411625 0.673218 0.091271 -0.073385 0.114196 -0.164536 -0.049430 0.214559 0.516247 -0.176115 -1.295373 0.053706 -0.314767
82 0.131531 -0.073977 1.266300 -0.324624 -0.494034 -0.801983 0.574620 0.132924 0.749852 0.964869 0.531307 0.048377 -0.001453 -0.079548 -0.268912 1.037524 -0.106268 -0.244376 0.296207 0.363321 0.816623 -0.522414 -0.304108 -0.209631 -0.062960 -0.048236 0.247528 -0.388828 -0.006579 -1.319139 0.393501 0.041696
642 -0.468185 -0.283848 -0.230647 0.084496 -0.427858 -0.591860 -0.586117 -1.515105 0.567882 1.210662 0.179470 -0.013369 -0.727103 0.097251 1.091825 0.093969 0.260911 0.297434 0.542559 -0.762491 0.111750 -0.553420 -0.432765 -0.477641 0.578986 -0.421344 0.367117 -0.085965 -0.323933 -0.454931 -0.246440 -0.573343
9 -0.383691 -0.298926 0.569615 0.068894 -0.040524 -0.907431 -0.484759 -0.567527 -0.777342 0.391783 0.117598 -0.547472 0.386958 -0.456177 -0.468645 0.234021 0.097712 -0.507178 -0.152641 -0.257399 0.875608 0.662644 0.063756 0.156758 -0.357848 -0.547603 0.338814 0.139359 1.713458 0.166523 0.347136 -0.225786
64 0.303171 -0.417698 0.149161 0.051971 -0.722566 -0.781466 0.147937 -0.421779 0.160258 0.080071 0.054239 -0.271409 0.203549 0.152561 -0.006985 0.606788 -0.026032 -0.178815 0.177463 -0.212371 -0.370286 0.771263 0.523388 0.107431 -0.265350 -0.414530 0.038998 0.034791 0.458454 0.350581 0.406219 0.298657
14 -0.286061 -0.007707 0.155796 0.525758 -0.321002 -0.535846 -0.206326 -0.275199 -0.067686 0.191221 -1.074575 0.246637 -0.517554 0.449080 0.034664 0.446336 0.140146 -0.432639 -0.546070 0.496084 -0.603954 0.603213 0.547966 0.800095 -0.768119 -0.555929 0.301510 -0.776991 0.427014 -0.334869 0.301488 0.450227
917 0.620690 -0.538120 0.612693 1.015870 -0.781227 1.246807 -0.245916 -0.140892 0.161046 0.856276 -0.159541 -0.242026 0.349119 0.628457 -0.580437 0.354935 0.227849 -1.062732 -0.191989 -0.482684 0.735233 0.737150 0.356713 0.591919 -0.194467 -0.566041 -0.345610 0.299382 0.087382 -0.012231 -0.542656 -0.097737
160 -0.131637 -0.377235 0.788827 -0.091626 0.279421 -0.987148 -0.632813 -0.491324 -0.314885 0.318842 -0.580221 0.342122 -0.550059 0.298347 -0.413070 0.103993 0.127672 -0.397502 0.332320 -0.492240 0.452678 0.712088 -0.597951 0.203427 0.143081 -0.002289 -0.356269 0.126217 1.061432 0.148686 0.086057 0.515504
87 -0.917890 -0.377790 0.045356 0.418149 -0.252715 -0.688467 0.284875 -0.184768 0.288295 0.540586 0.256539 -0.204452 0.681116 0.604299 0.346330 0.747936 -0.025778 0.767618 0.283717 -0.440443 0.785778 0.143158 -0.323693 0.047392 -0.006827 0.294345 -0.344153 -0.221022 0.432320 -1.427179 0.746688 0.111628
392 0.684859 0.743701 0.622578 1.028518 -0.894151 -0.061280 -0.507466 -0.918385 0.005768 0.516736 -0.100039 -1.023194 0.424928 0.123015 0.479116 0.752033 -0.291572 0.022540 -0.007871 -0.719208 -0.032880 -0.002238 -0.287602 0.100731 -0.343779 -0.278107 0.200377 0.456478 -0.522487 0.673092 -0.549926 0.080497
79 -0.662861 -1.103517 1.603957 0.045560 -0.167872 -0.213476 0.624555 -0.273599 0.372801 0.092103 0.225013 -0.761003 0.274457 0.929237 -0.253952 0.774963 0.249695 -0.077094 0.326242 0.369833 0.732331 0.280435 0.178321 -0.158627 0.595592 0.020868 0.953490 0.943302 0.025367 -1.366048 0.490671 0.236593
35 -0.416105 -0.368091 0.469608 -0.100807 -0.474718 -0.663709 0.022497 -0.461950 0.406592 0.148344 -0.599816 -0.120550 -0.451546 0.321115 -0.335237 -0.746432 -0.130787 0.078059 -0.287465 -0.040379 -0.581487 0.224446 -0.409151 0.420395 -0.468100 -0.282745 0.007226 0.698465 0.395381 0.378452 0.669231 -0.535393
324 -0.264497 -0.426565 0.916737 0.008293 -0.479655 -0.116689 0.804421 -0.863568 -0.239183 -0.382947 -0.114653 -0.596702 0.411625 0.327719 -0.250640 0.233743 0.084740 0.149329 -0.316272 0.473275 -0.008162 0.118118 -0.293469 -0.315951 0.298531 -0.033939 0.778708 0.383161 -0.173301 -1.135101 0.113801 0.320804
156 0.442963 0.014743 0.388327 0.661694 -0.312467 0.091932 -0.452914 -0.573027 0.290216 0.576219 -0.604158 0.036232 -0.857050 -0.087472 0.114017 0.783186 0.264013 0.534396 0.262771 0.823407 -0.144664 0.741135 -0.087390 0.441191 -0.302077 -0.777382 -0.634491 0.705136 0.605491 -0.266899 -0.014130 0.433540
291 -0.392224 -0.785047 -0.169650 0.083946 -1.631196 0.592469 -0.481370 -0.085775 -0.631349 0.431124 -0.075253 -0.312058 0.080998 0.217409 -0.959454 0.168054 0.454945 0.224692 0.133701 0.075107 0.015874 0.529238 -0.259635 -0.845439 -0.246422 0.018750 0.066268 -0.111237 -0.235453 -0.815216 -0.690137 0.407538
335 1.423143 -0.326818 0.973962 1.101195 -0.857688 -0.909605 -0.339248 -0.291607 -0.158096 0.409755 0.477097 0.190872 -0.155984 0.841749 0.441775 1.795339 -0.499959 1.277967 -0.378399 1.327737 0.276159 0.298589 -0.172992 -1.044838 -1.449377 -0.260270 -1.242555 1.398359 1.498913 0.255775 -0.603612 -0.919635
123 0.295413 0.134139 0.241504 0.067260 0.045730 -0.228704 0.640117 -0.748128 -0.083024 -0.501634 -0.688918 -0.954961 -0.645532 -0.221486 0.045244 0.108787 -0.305160 0.299154 -0.294470 -0.012489 0.106445 0.684637 -0.458423 -0.386830 -0.263664 -0.114643 0.357092 -0.644884 -0.121324 -0.559955 -0.162147 -0.529610
265 -0.597084 -1.027700 0.550902 -0.633094 -0.771534 0.367740 -0.870715 0.317352 -0.064937 0.544504 -0.621715 0.205890 0.536950 0.427715 0.147969 -0.024364 -0.219473 0.851028 0.355899 0.181704 0.468874 0.338471 -0.575448 0.019311 -0.455929 -0.558449 -0.044754 -0.818897 0.003316 -0.518156 0.198044 -0.458155
473 -0.742148 -1.235855 -0.147916 1.069069 0.684793 -0.724831 -0.163094 -1.112860 -0.983077 -0.358364 0.003462 -0.535722 0.053720 0.868945 -0.295641 1.160931 -0.011832 -0.217643 0.031132 -0.779307 0.444571 0.352232 -0.708753 -1.374646 -1.712493 -0.634279 -0.497108 -0.157274 -0.436477 -0.120161 0.207251 1.515329
1030 0.261403 -0.538253 -1.209275 -0.783682 -2.135758 -0.503994 0.539228 -0.812363 -1.278393 -0.961937 -2.030144 -0.313460 0.267764 0.959822 0.222442 1.532565 -0.106919 -0.586378 0.385601 -0.548397 0.090570 0.131734 0.261953 -1.250420 -0.465884 -1.865850 2.449375 1.112879 0.356495 -0.896689 0.088371 -0.475445
340 0.513415 0.245396 0.554436 -0.155698 -0.141170 -0.508545 -0.484204 -0.395523 -0.144179 -0.047060 -1.073491 -0.431567 0.310925 -0.178152 0.523957 0.493885 0.094262 -0.145479 -0.361353 -0.242026 0.286572 -0.525890 -0.462398 -0.405374 0.243886 -0.179345 -0.010334 0.997663 -0.522562 -0.803482 0.460697 0.476536
97 -0.840339 -0.243018 0.952412 0.373673 -1.064757 -1.031334 0.492756 -0.330501 -0.214175 0.312103 -1.226726 -0.018681 0.579883 -0.428973 0.140009 -0.658091 0.537625 0.612343 -0.004780 -0.553748 0.614677 -0.540752 0.797884 0.852399 -0.747430 0.416854 -0.094905 -0.056406 -0.070957 -0.084706 0.315509 -0.264086
223 -0.027820 -0.235057 0.571080 0.620647 -1.184752 -1.045836 -0.157417 -0.105021 -0.039410 -0.147797 0.484991 -0.161159 0.265222 0.230694 -0.374769 0.387957 0.473635 -0.185504 -0.027989 -0.152662 -1.060064 -0.452157 -0.375461 0.982522 -0.918223 0.127549 -0.406652 -0.531570 0.369052 -0.496282 -0.443921 -0.370925
592 0.326209 -0.121690 0.327513 -0.491093 -1.820201 -0.625337 -0.335182 -1.285975 0.164599 0.618101 -0.127286 0.752921 0.254264 -0.233294 -0.164711 0.552593 0.421970 0.975868 -0.984979 -0.046633 0.817956 1.292092 0.465816 -0.946824 -1.240312 -0.754781 0.010855 0.919464 -0.372642 1.360238 0.831275 -0.777369
159 -0.272995 -0.217917 -0.166625 0.567098 -0.612986 -0.792556 -1.312531 -0.327528 -1.000690 0.618404 -0.735542 0.198881 -1.279345 1.369193 -1.083713 -0.020274 0.020203 0.517714 0.123012 0.133434 0.280595 0.213529 0.262861 0.654556 -0.148656 -0.086777 0.357474 1.112204 0.367467 -0.143673 -0.562143 0.391605
507 0.676046 0.181516 0.551229 -0.304733 -0.486465 -0.493340 0.922657 0.401225 -1.270518 -0.043929 -0.225627 -0.302357 -0.578903 0.637500 -0.437217 0.474907 -0.252865 0.094437 -0.145225 0.116792 0.893033 -0.161218 -0.033273 0.681803 -0.881165 -0.710298 -0.089939 0.303942 -0.259421 -0.985474 -0.289576 -1.667158
388 0.359669 0.167439 1.040113 0.448017 0.065845 -0.273553 0.279076 -0.347343 0.117640 0.856892 -0.279928 -0.452090 -0.689675 0.245261 -1.040643 -0.245014 0.848883 -1.113149 -0.326616 -0.085288 -0.565515 0.549377 0.213796 -0.825273 0.647865 -0.970772 0.714155 -0.767014 0.180825 -0.807348 0.655061 -0.740695
713 0.463438 -0.229927 0.787574 0.157582 0.054278 -0.725541 0.172098 -0.823259 -0.132672 0.886521 -0.683487 0.005015 -0.231183 1.092455 -0.805082 -1.136187 0.035690 -1.468089 -0.089650 0.320472 -0.444581 1.407125 0.196296 -1.051834 0.524643 -0.356508 -0.007079 -1.064719 0.728124 -0.528388 0.548033 -0.917725
998 0.347433 1.267458 0.441486 -0.806635 -0.690367 -0.453415 -0.880639 -1.124371 1.307811 0.562187 0.800037 0.472874 1.075217 1.711718 -0.684168 0.349590 0.313326 0.094034 -1.620823 -0.879651 0.056649 -0.075599 -0.235012 -0.817811 -1.991962 -1.228634 0.405616 -0.874586 0.899669 -1.437865 1.493610 0.226274
390 0.228341 0.335674 0.844753 0.910744 -1.079188 -0.477655 -0.081360 -0.000663 0.167452 -0.396867 -0.479965 0.281432 -0.444577 -0.337032 -0.992070 0.621072 0.720700 -0.477452 -0.027733 -0.298014 0.309575 0.104756 0.102377 -0.244428 0.316820 -0.561024 0.334603 0.094496 0.074367 0.041859 0.817207 -0.377377
609 -0.169543 -1.099806 0.301539 0.469225 -0.152114 0.247844 -0.259932 -0.296413 1.679218 1.440118 -0.875334 -0.150509 0.894687 0.642226 0.007714 0.033368 -0.762244 0.415150 -0.928545 -0.682220 0.393814 -0.734221 0.135695 -0.134266 0.003609 0.092516 0.669923 -0.737067 0.802362 -0.466187 0.047667 -0.236000
596 0.283581 -0.899160 0.125565 0.143109 -0.323490 -0.205362 0.161606 -0.785804 0.009324 -0.195068 -0.988033 -0.975649 0.652718 -0.392185 -0.102881 0.294154 0.533087 0.552283 -1.183846 -0.679215 -0.055435 -0.348434 0.053961 0.265765 0.347554 0.174436 -0.477748 -0.392696 0.638703 -0.347026 0.012250 -0.127478
833 0.190036 0.029458 0.270231 0.267826 -0.117148 -0.349118 -0.408457 -0.468192 -0.224339 0.316832 -0.534236 -0.486692 -1.106693 -0.018189 0.735530 -0.019255 -0.219274 0.049889 -1.039872 -0.280056 0.458735 -0.029876 0.231890 0.588822 0.538794 -0.560017 -0.822945 0.535814 0.298625 -0.994658 1.084251 0.223643
805 -0.349287 0.041297 0.361537 0.391161 -1.521325 -0.527601 1.709003 -0.614915 0.472832 0.927337 -1.609791 -1.262156 -1.227804 2.303701 -0.956318 0.255089 0.868874 -0.296874 0.051588 -0.013704 -1.443288 -0.537809 0.081893 -0.217291 -0.915601 0.790538 -0.713263 -0.500513 0.949874 -0.291604 -0.780296 0.704276
458 1.013969 -0.564953 0.062216 0.508598 0.090608 -0.423871 0.384547 -0.091642 -0.326964 0.067824 -1.496940 -0.195871 -0.331157 -0.495146 -0.528782 -0.953093 0.263371 -0.680486 0.535459 -0.633657 -0.009348 0.498167 -0.145183 -0.614713 -1.025553 0.197246 0.336843 0.579808 0.478426 -0.538617 -0.265942 -0.091531
522 0.005187 -0.119902 0.732926 0.303538 -0.355818 -0.114438 -0.010489 -0.816587 -0.105469 0.667415 -0.164375 -0.641335 -1.086991 -0.001291 0.437822 0.255954 -0.378620 -0.775342 -1.346460 0.138675 0.008493 -0.027835 -0.102928 0.617750 0.521456 -0.731623 -0.451586 0.856301 0.081634 -0.365677 0.743685 0.030024
1007 0.438259 -0.765696 1.601783 -0.432943 0.415841 -1.566970 0.049077 -2.244547 0.333540 1.034342 -0.233754 0.446914 -1.083963 2.044189 -0.435332 -1.846060 0.787552 -1.553628 0.558080 0.110032 -1.355908 1.040644 0.129367 -0.793066 -0.120448 -0.717767 -0.567158 -0.990199 0.399600 -0.454719 0.120255 -0.762883
301 0.310900 0.083429 0.161431 -0.304701 -0.386812 0.199180 -0.585467 -0.133179 0.090841 -0.078593 -0.674823 -0.240567 -0.119482 0.422139 -0.513157 -0.296480 0.093678 -0.712281 0.529835 -0.184122 0.358202 0.255084 0.574458 -0.556834 -1.024592 0.465562 0.000870 -0.013190 -0.382624 -0.593474 -0.139707 0.085504
131 -0.499895 0.245957 0.377830 -0.417373 -0.581631 -0.266489 0.167294 0.032871 0.321969 0.428959 -0.740822 0.622957 -0.352657 0.526237 0.362390 1.195887 0.503006 -0.618753 -0.042806 -0.519800 -0.300908 0.674182 -0.161666 0.477279 -0.161525 -0.604618 0.040959 -0.017629 -0.359169 -0.458090 -0.398671 -0.399014
406 -0.635338 -0.246505 0.196338 -0.053432 -0.895478 -0.680714 -0.486072 -0.023762 -0.203161 0.019717 -0.261359 -1.345897 -0.363333 -0.191253 -0.712723 -0.197097 -0.111845 -0.849545 0.564874 -0.552423 -0.313468 -1.318110 -0.161171 0.337303 -0.812804 0.004453 0.182948 -0.243490 0.178050 -0.272156 -0.656429 -1.261192
781 -0.488969 -1.502306 0.162910 -0.262531 -0.604188 -1.397506 -1.752469 -0.533400 1.084037 0.680479 -0.647221 0.272421 -0.497458 -0.396581 0.042299 0.128803 0.179207 -0.710984 0.250116 0.637058 0.080210 -1.431755 0.040697 -0.238499 0.169566 -0.379026 0.604627 -1.123139 0.938393 -1.301076 -0.268980 -0.142611
348 -0.172727 -0.235535 0.895007 0.058402 0.109232 -0.480993 -0.499048 0.209650 -1.268017 -0.071586 -0.775130 -0.769487 0.523513 0.095234 0.219287 -0.229937 0.134840 -0.222719 0.205761 -0.154388 0.403809 -0.203153 0.174625 -0.652502 0.131606 -0.759800 0.697546 -0.053753 0.617301 -0.822576 0.088315 -0.596592
349 0.498117 0.158748 0.138659 0.504635 -0.882300 -0.150526 -0.016329 -0.263739 -0.198706 -0.077853 0.592206 -0.805405 0.276954 -0.323832 -0.747851 0.165807 0.199175 0.168989 -0.064166 -0.078771 0.016479 0.163945 0.039539 -0.476275 0.154296 -0.007717 0.648254 0.907791 -0.093106 -1.407951 -0.308885 -0.380935
902 -0.017024 -1.404544 0.705338 0.613641 -0.678907 -1.073067 -0.237915 0.001193 -0.482583 -0.049728 0.196081 -1.204499 -0.372203 -0.243057 -0.594182 -0.211835 0.261477 -0.117674 -1.360695 -1.484658 0.360564 -0.075784 -0.316025 -0.466693 -0.335608 0.956965 0.943216 -0.223588 0.572847 0.417952 -0.906324 -0.873644
368 -0.351468 -0.196542 -0.600224 0.833790 -0.114550 0.175960 -0.375320 -1.103008 -0.298833 -0.024887 -0.264815 0.159731 0.074060 0.045842 -0.017321 0.082546 0.208716 0.109680 -0.161932 -0.594271 0.091813 -0.240652 -0.512779 -1.111565 -1.138773 0.717013 -0.290974 0.196178 -0.228457 -0.845183 0.403687 -0.082083
66 -0.209386 0.418533 0.702286 -0.474951 -0.441474 -0.523687 -0.860803 -0.317126 0.493835 -0.372078 0.287481 -0.784517 -0.083962 -0.029802 -0.033262 -0.332274 -0.202690 -0.003870 -0.835027 0.205518 0.319543 0.775104 -0.370437 0.224857 -0.153084 -0.533089 -0.213959 -0.053194 0.441816 -0.808553 -0.111543 -0.179494
58 0.369596 -0.498898 -0.287002 -0.071786 -0.168271 -0.953926 -0.695268 -0.220008 0.223041 0.576146 0.181246 0.467878 -0.578841 -0.333034 0.049702 0.023096 -0.334725 0.736254 -0.606249 -0.432938 0.483045 0.275486 0.669781 -0.011866 -0.979185 -0.850101 0.421169 0.247536 0.519313 -0.011922 0.163773 -0.503604
660 0.194537 -1.019551 0.988713 1.244325 0.439817 -1.077845 0.440534 -0.899851 -0.158197 0.247026 0.246936 -0.034344 -1.298355 0.184078 0.869837 -0.058782 0.721458 1.539291 0.319020 -0.159297 -0.197137 0.221671 0.502447 -0.820890 -0.921607 -0.839050 -0.070784 -0.192974 -0.194714 -0.133397 0.528794 -0.150290
513 -0.674312 -0.038765 0.643049 -0.127527 -0.139650 0.372110 0.138232 -0.425335 0.088466 0.464689 0.038311 -0.518763 -1.072100 -0.017581 -0.233372 0.247510 -0.640767 0.713334 -0.598545 -0.083665 -0.179864 0.077004 -0.513519 -0.235933 -0.346364 -0.497069 0.143198 0.531027 0.710853 -0.475182 0.139112 -0.616858
310 -0.272169 0.771728 0.113889 -0.083894 -0.509691 0.007053 -0.829179 -0.634877 0.329782 0.371731 0.513973 0.413137 0.660155 1.225043 -0.644184 0.404240 0.280370 -0.015399 -0.194427 -0.363544 -0.165355 0.562840 0.057202 -0.627186 -0.823759 -0.737300 -0.118779 -1.175760 0.345657 -1.730302 1.341237 0.167800
394 0.279043 0.116911 1.447216 1.332629 -0.469170 -0.453172 -0.361092 -0.196838 0.347952 0.304363 -0.420163 -0.623162 0.136661 0.552627 0.830263 -0.282653 -0.491524 0.672201 -0.721997 -0.575691 -0.039565 0.217084 0.264187 0.201974 -0.384320 0.385211 0.881443 -0.390541 0.027471 0.278940 0.322463 -0.459970
330 0.652326 0.179037 2.103312 -0.425538 0.297396 0.149482 -0.705083 -0.377813 -0.151180 1.029582 -0.546027 -0.271325 -0.093638 0.933096 -0.064438 0.064641 -0.335670 0.663961 0.366013 -0.905993 -0.000974 0.436762 -0.321988 -0.578228 0.038759 0.598825 0.533349 -0.008852 -0.056871 0.027631 0.070835 -0.009547
602 0.054139 -0.299238 0.124666 0.467610 -0.589919 -0.523033 1.116250 -0.270090 0.298638 -0.296563 -0.237150 0.234090 -0.487050 0.732399 -0.284794 0.415324 -0.484928 0.452703 -0.527850 0.485407 0.192444 -0.170619 0.139106 -0.530111 -0.250020 -0.194553 -0.170658 0.029603 -0.300959 -0.511741 -0.248142 -1.152144
220 0.435488 -0.477543 0.977407 0.666502 -0.584971 -0.730898 -0.598317 0.243137 0.880154 0.207903 0.055814 0.544155 0.240968 0.866923 -0.549394 -0.192854 -0.334174 -0.424047 0.540877 -0.255991 -0.401646 -0.797807 0.090341 -0.676376 -0.443271 0.225529 0.041492 0.258303 -0.234131 -0.241149 0.194176 -0.358896
381 -0.435571 -0.468795 -0.203560 -0.128341 -1.251700 0.172469 -0.014279 -0.281962 0.703335 -0.121743 -0.783360 -0.278005 -0.252746 0.036077 -0.049179 0.351124 0.355723 0.684473 0.000934 0.323580 0.744809 -0.702706 1.051272 0.051501 -0.912373 0.056425 0.577298 0.652934 0.549072 -0.816096 -0.738161 -0.422271
430 0.325997 0.783550 -0.545762 0.683016 -1.239679 -0.718291 -0.235525 -1.173578 0.497303 0.473277 -0.198770 0.212704 0.194561 0.085095 0.220548 0.714854 -0.157760 -0.400182 0.447777 -1.300900 0.332014 -0.275394 0.006949 0.591406 0.129312 -0.690115 0.400594 -0.436828 -0.461491 -0.110487 -0.826294 0.129616
57 -0.697181 -0.557996 0.126249 -0.994032 -0.377924 -0.351155 -0.776656 -1.153271 0.680753 0.154414 -0.494756 -0.479778 0.525863 0.211896 0.156268 -0.467230 0.543717 0.409597 -0.048211 0.334278 0.158661 0.619667 0.538400 0.151362 -0.507311 -1.073861 -0.412904 -0.301008 -0.079005 -0.211555 -0.381877 -0.040153
569 0.058062 -0.119016 0.264814 -0.276709 -0.701848 -0.664529 0.054514 -0.065047 0.180316 -0.279408 -1.370004 -0.823476 -0.039756 0.157731 0.390706 -0.643238 -0.759101 -0.549549 0.129218 -0.249412 0.669134 1.341546 0.244466 -1.130936 0.083138 -0.047244 -0.130168 -0.669532 0.322343 -0.088269 -0.580368 -0.108373
620 -0.064568 -0.411756 -0.681401 0.682536 -0.917483 1.030694 -0.610369 -1.379270 0.148916 0.505185 -1.314788 -0.041717 -0.432203 -0.817827 -1.308110 -0.239494 0.041550 0.868935 -0.384030 0.074312 -0.026632 0.044898 -0.951038 -0.937532 -0.840760 0.358263 -1.297476 0.683740 0.744699 -0.727966 -0.460959 -1.100712
246 0.187272 -0.913411 0.796210 0.249675 -0.476763 0.059028 -0.790367 -0.304210 -0.010999 -0.304676 -0.250552 0.415037 -0.574826 0.178383 0.026088 0.389902 -0.072387 -0.292644 -0.034078 0.161766 -0.645878 -0.282856 -0.734082 0.233019 0.042497 -0.253232 -0.415984 0.883885 0.201871 -0.232826 0.100537 -0.638406
365 0.196326 -0.224664 -0.289826 -0.229270 -1.163090 -0.821259 -0.522075 -0.219563 -0.061472 0.325544 0.062935 0.567044 -0.575505 -0.164752 0.427445 0.036243 -0.112250 0.648707 -0.462594 -0.136422 0.798741 0.388303 0.493873 -1.018564 -0.632159 -0.195634 0.250414 0.474482 -0.202666 0.142926 0.346805 -0.524614
578 0.787770 0.014494 0.077677 0.782548 -0.223712 -0.198549 -0.728770 -0.648323 -0.302682 0.598454 -0.265022 -0.753466 0.300878 0.307019 0.056288 1.346177 -0.839175 0.493201 0.357293 0.414542 0.134052 0.781922 0.017567 -0.612646 -0.915275 -0.368951 -0.391352 0.708807 -0.299021 0.342691 -0.629452 0.256539
167 -0.153285 0.440350 0.042314 -0.053432 -1.104811 -0.510612 -1.110516 0.114088 -0.362155 -0.141197 0.028252 -0.070092 -0.049795 -0.026146 0.044102 -0.289771 0.251763 -0.338869 -0.431844 -0.638076 0.942325 0.551362 -0.230590 -0.502849 -0.569239 0.049591 -0.238626 -0.159858 0.635079 -0.228238 -0.522596 -0.204262
551 0.708795 -2.072047 -0.063195 0.161850 -0.375418 0.491946 -0.765668 -0.275607 0.707549 -0.601367 -1.052055 -0.177782 -0.716915 -0.109800 0.288725 0.747594 0.216145 0.030850 -0.315527 -0.179486 -0.533083 -0.251224 -1.455499 0.462315 -0.343035 0.051096 -0.904510 0.947716 0.150505 -0.860234 0.144367 -0.963339
422 1.024874 -0.315383 -0.383376 0.444711 -1.736801 -0.107906 -0.161139 -0.916894 0.163228 0.326493 -0.107840 -0.301583 -0.070572 -0.412836 -0.074933 0.656051 0.458564 -0.688036 0.491565 -0.163360 -0.950284 -0.524466 0.136398 0.827131 -0.491423 -0.124335 -0.452153 -1.139940 0.784053 -0.222721 0.249182 -1.097662
742 0.674262 -0.548351 0.487966 -0.615265 -0.721762 0.762197 0.523819 -0.768020 -0.750246 -0.342342 -0.985957 -0.330658 -1.115685 0.129530 -0.724273 0.683672 -0.032479 0.191693 -0.314153 -0.616403 0.451926 0.055585 0.340649 0.911371 -0.847799 -0.064683 0.580310 -0.556715 -0.138664 -0.268123 -0.632021 -1.399317
17 -0.359100 -0.305276 0.316334 -0.026830 -0.070173 -0.938143 0.060753 -0.592475 0.056266 0.730205 -0.516312 0.124705 0.100399 0.130055 0.245546 0.221737 0.445218 0.978199 -0.263528 0.299645 0.254513 0.008798 -0.037244 1.265731 -0.812479 -0.085148 -0.196532 -0.240555 0.308068 -0.238280 0.613011 -0.840117
876 0.437069 0.203826 0.259737 -0.125358 -1.233222 0.045470 -1.316887 0.355282 0.580783 0.441593 -0.602578 -0.106177 -0.868233 0.279783 -0.501598 1.212884 -0.443879 -0.116668 0.624759 -0.702200 0.143642 -0.879895 1.027202 0.173839 0.009596 0.581680 -0.619868 0.256381 -0.892570 -1.239576 0.299872 -0.318738
125 -0.222521 0.677141 0.505999 0.019258 -0.484133 -0.646789 -0.209175 -1.411258 -0.447002 -0.109299 0.192687 -0.246027 0.426496 0.305695 -0.173378 0.096688 0.663201 -0.670594 -1.154105 -0.119043 0.430714 0.647675 -1.452542 0.068896 -0.692108 -0.415906 0.347243 -0.499939 0.364879 -0.268708 0.605324 0.155391
290 -0.168687 -0.812049 0.380420 -0.343608 -1.114648 -0.598544 0.032008 0.027854 0.413926 0.290629 -0.036693 -0.282169 -0.283125 0.470320 -1.159873 0.559625 -0.182267 0.069878 0.410751 -0.348507 -0.472864 0.652567 -0.014727 0.353188 -0.775526 0.874474 -0.073346 0.576753 -0.423606 0.027684 -1.208755 -0.020639
276 0.294723 0.634211 0.610937 0.205460 -0.736343 -0.575610 -0.588870 0.074648 -0.441659 0.197578 0.167775 0.156027 -0.484613 -0.188439 -0.085059 0.053487 0.624580 0.047928 -0.511040 -0.674321 0.415333 0.262326 -0.105267 -1.167576 -0.273618 -0.124168 0.044805 -0.161773 0.212643 -0.207428 -0.922421 -0.549647
437 0.007021 -0.700732 0.153610 0.074281 -1.022470 0.170031 -0.612310 -0.868376 0.171396 0.141148 -0.411770 0.526720 -0.360131 0.343016 -0.804335 0.123587 0.079899 -0.086929 0.497036 0.051332 0.067732 -0.008954 0.034352 -0.117596 0.527115 -0.580669 0.313182 -0.507083 0.055203 0.278505 0.082400 -0.448834
439 0.056636 -0.435135 0.429327 0.661516 -0.884377 -0.732310 -0.137023 -0.088876 0.868162 0.575785 -0.354763 0.057624 -0.337853 -0.413284 -0.042709 0.288131 -0.333204 -0.029205 -0.082942 -0.143700 0.481425 -0.706307 -0.105392 0.316031 0.079219 -0.395327 0.294986 -0.934188 -0.291301 0.091760 0.258982 -0.085976
669 -0.284618 0.090528 0.391268 0.779112 -0.571680 -0.221497 -0.095537 -0.108234 -0.081705 1.039295 -0.725704 -0.480388 0.231891 1.831634 -1.060491 -0.423377 0.088293 -0.940522 0.368924 0.218414 -0.459756 -0.256890 -0.652168 -0.715140 0.317687 0.582244 -0.853430 -0.311503 -0.131851 -0.660315 -0.072000 -0.976185
568 0.549811 -0.436187 -0.738456 0.426220 -0.674040 0.088012 -0.545296 -1.430249 0.285783 0.576586 -1.163449 -0.104461 -0.955146 -0.890160 -0.862461 0.407458 -0.108880 0.870603 -0.363656 1.009708 0.413685 -0.027028 -1.118784 -0.971546 -0.360695 0.104731 -0.789702 1.052135 0.746997 -0.361537 -0.111566 -0.489811
22 -0.144594 0.357366 0.153428 -0.412409 -0.173420 -1.039425 -0.236760 -0.516968 0.590430 -0.041757 -0.864581 0.094611 0.317792 -0.158039 -0.305543 0.270725 0.615952 0.168758 -0.190277 0.211466 -0.456565 0.679387 0.020376 0.139845 0.298969 0.064639 0.104124 0.799030 0.133226 -0.913268 0.024067 -0.525729
234 0.814730 -1.029421 0.856868 0.073183 -0.386184 -0.306953 -0.471264 0.267107 -0.446159 0.588699 0.003787 0.648265 -0.126762 0.105664 0.188164 1.011845 -0.457695 -1.460358 -0.242750 0.270814 -0.443702 0.194265 0.585939 0.143014 0.118206 -0.482464 0.535663 -0.224013 -0.059318 -1.040289 -0.227436 -0.534935
754 0.134767 -0.505906 -0.292021 0.508762 -0.707832 -0.950509 0.432638 -0.406176 -0.474688 0.797435 -0.333123 -0.417245 0.184058 -0.272406 0.760900 -0.640163 -0.112052 -0.330029 0.344661 0.006620 -0.086151 0.800611 0.068235 -0.911895 -0.107746 -0.786836 -0.652393 -0.974724 -0.130755 -0.360696 -0.117472 -0.417573
328 0.749853 0.283914 0.316682 0.345970 -0.526735 -0.168362 -0.316953 -0.225219 0.439536 0.274539 -0.294227 0.026922 -0.844669 -0.111134 -0.168877 1.361393 -0.245386 0.258395 0.662989 -0.012543 -0.363125 0.035300 0.224580 0.796674 -0.098128 -0.936730 -0.448732 0.018766 0.028736 -0.632755 0.185943 0.277381
704 -0.848685 0.340134 0.336625 1.279180 -1.757034 -2.750977 1.412059 -1.250032 0.132980 -0.144962 -1.195889 1.763047 0.663855 -1.004562 -1.438074 0.648275 -0.186675 -0.854573 0.633789 0.262138 1.554526 3.050703 -0.951940 0.181735 -0.299778 -1.623500 0.830346 -0.587529 1.965186 -1.299923 -0.800533 -0.127991
360 0.503023 -0.540865 -0.295467 -0.100819 0.076936 -0.139289 -0.088701 -0.753088 0.189493 0.221504 0.093848 -0.103823 -0.336217 0.042888 -0.511805 0.366973 -0.204811 0.352584 0.059204 0.342938 0.790264 0.581057 -0.285570 -0.882609 -0.140324 0.089332 -0.167843 0.500283 0.093796 -0.568060 0.597638 -0.262568
755 -0.386201 -0.371100 0.171048 -0.369744 0.058977 -0.270846 0.460559 -0.318611 0.226999 1.066495 -0.386770 0.347519 0.000058 0.478575 0.958182 0.585463 -0.155214 0.314463 0.410099 0.101442 -0.081057 0.862022 -0.458674 0.466286 -0.525361 -0.186845 -0.423847 0.355250 -0.148375 -0.923458 -0.232193 -0.867876
641 -0.254284 0.198314 -0.040215 0.781681 -0.595358 -0.878178 0.078494 -0.463535 -0.244802 0.391487 0.735490 0.349972 -0.768275 1.030084 0.335353 0.657458 0.041365 1.024286 0.285552 -0.359662 0.387018 -0.009974 -0.128383 -0.612821 0.264961 -0.621116 0.226970 -0.414468 0.238867 -0.852613 -0.047689 -0.279139
599 0.838475 -0.130484 0.465855 -0.514414 -0.251880 -1.585274 -0.564277 -0.558936 0.254522 -0.251306 0.118506 0.532116 0.726315 0.494916 0.482819 1.546407 0.248673 -0.107928 0.418756 0.411131 1.729851 -0.139735 -0.659354 -1.034754 -0.243772 -0.078960 0.375254 -0.866147 0.591142 -1.185571 0.172975 -0.050115
247 -0.195945 -0.739172 0.923689 -0.314727 -0.295004 -0.924585 -0.579532 0.169835 -0.034921 -0.216961 -0.568926 -0.249064 -0.161018 0.360764 -0.592798 0.420131 -0.385638 -0.722124 0.945468 -0.770983 0.318050 1.297194 -0.190194 -0.042673 -0.100853 -0.099623 -0.235628 0.121830 0.518998 0.502943 -0.128505 0.397718
529 -1.098303 -1.069289 0.662359 0.102710 -0.933459 0.542071 -0.644967 -0.180085 0.191257 0.138939 -0.120375 0.229018 -0.108948 0.413416 -0.292510 -0.050254 -0.287306 -0.106901 0.692894 0.085841 0.507239 0.197817 -0.689570 -0.035704 -0.475113 -0.519657 -0.229862 -0.069578 -0.486887 -0.032363 0.872226 -0.633231
51 -0.345125 -0.196488 0.421326 -0.662462 0.626873 -1.187238 -0.204221 -1.003659 0.004177 -0.039087 0.078931 0.381921 -0.174071 0.816127 0.061999 0.070994 0.291802 -0.403875 -0.713631 -0.276338 0.449417 0.216705 -0.186814 -0.380828 -1.465293 -0.952088 -0.422754 -0.270655 0.194965 0.019280 0.466602 0.357502
1021 -1.058123 -0.310144 1.232034 2.264926 -1.675724 -0.011069 1.480143 -2.356475 0.555519 3.464743 0.218853 0.038892 -0.674733 -1.356455 -1.623218 -0.637288 -1.171438 -0.462155 0.740386 0.452052 1.704282 1.259522 -0.362678 -0.094995 -0.422997 -0.790624 -0.888648 -0.361239 -0.238399 -1.731480 -0.608796 1.234587
547 0.388170 -0.152763 0.722069 0.688369 -0.778818 0.158481 -0.792758 -1.477092 0.478646 0.559187 -0.385158 -2.194286 -0.127975 -0.486169 0.348482 1.263938 -0.350245 -0.078321 0.720090 -0.121567 -0.324305 0.027585 -0.519958 -0.814222 -0.111423 0.005175 -0.343047 0.749671 -1.068676 0.486348 -0.290378 0.214044
53 -0.187531 -0.647070 -0.035010 0.330144 0.124409 -0.895500 -0.045807 -1.026011 0.331141 -0.082488 0.547959 -0.280533 -0.792915 0.026206 0.371785 0.304705 0.454883 0.757382 -0.177623 0.069895 -0.092040 0.150051 0.797204 -0.772724 -0.948333 -0.321798 0.152598 0.216993 -0.059026 -0.339813 0.892831 -0.212577
